tree
version=v3
num_class=4
num_tree_per_iteration=4
label_index=0
max_feature_idx=27
objective=multiclass num_class:4
feature_names=Column_0 Column_1 Column_2 Column_3 Column_4 Column_5 Column_6 Column_7 Column_8 Column_9 Column_10 Column_11 Column_12 Column_13 Column_14 Column_15 Column_16 Column_17 Column_18 Column_19 Column_20 Column_21 Column_22 Column_23 Column_24 Column_25 Column_26 Column_27
feature_infos=[1:32] [1:32] [1:32] [0:1] [1:32] [1:33] [1:99] [0:900] [0:1800] [0:3600] [0:2] [1:36] [1:5] [1:4] [0:1] [0:42] [-85:99] [-34:97] [-1:3] [-1:3] [0:3] [0:3] [0:57] [0:45] [0:57] [0:57] [-45:38] none
tree_sizes=5210 5275 5197 5304 5246 5338 5241 5373 5265 5354 5245 5389 5255 5354 5246 5390 5264 5367 5230 5405 5295 5369 5287 5394 5332 5367 5307 5406 5313 5360 5309 5388 5315 5395 5312 5396 5305 5379 5328 5384 5309 5387 5305 5386 5317 5391 5301 5394 5307 5399 5321 5384 5311 5384 5319 5409 5317 5421 5314 5386 5300 5386 5297 5387 5320 5398 5297 5390 5303 5383 5293 5395 5307 5379 5289 5383 5291 5383 5287 5378 5313 5382 5295 5402 5313 5394 5307 5364 5315 5409 5297 5383 5293 5362 5300 5387 5292 5380 5279 5396 5292 5413 5306 5395 5293 5394 5290 5382 5282 5380 5285 5397 5299 5382 5290 5395 5306 5376 5302 5401 5304 5378 5277 5408 5297 5395 5288 5396 5289 5396 5290 5408 5295 5407 5314 5378 5279 5374 5298 5369 5297 5376 5294 5393 5283 5415 5317 5363 5299 5399 5306 5398 5283 5390 5295 5388 5295 5389 5285 5358 5306 5357 5290 5358 5288 5367 5297 5376 5307 5340 5304 5390 5292 5361 5308 5374 5298 5386 5302 5354 5295 5356 5298 5376 5305 5331 5316 5340 5310 5332 5296 5325 5307 5332 5306 5341 5313 5333 5302 5337 5291 5334 5306 5321 5314 5332 5313 5311 5301 5331 5296 5317 5299 5349 5308 5336 5310 5313 5307 5308 5328 5319 5300 5336 5321 5351 5301 5324 5309 5375 5305 5349 5321 5376 5312 5318 5326 5365 5310 5318 5351 5364 5326 5297 5326 5305 5301 5299 5343 5331 5331 5318 5338 5311 5331 5332 5324 5358 5318 5327 5342 5291 5344 5341 5333 5359 5323 5321 5335 5321 5323 5327 5337 5289 5349 5327 5346 5311 5342 5354 5355 5334 5330 5352 5351 5308 5338 5359 5347 5308 5318 5334 5367 5313 5347 5362 5332 5308 5344 5354 5351 5317 5339 5348 5355 5330 5356 5353 5359 5288 5353 5345 5341 5287 5346 5344 5348 5318 5367 5304 5343 5324 5344 5321 5362 5307 5361 5298 5388 5324 5357 5294 5384 5307 5349 5359 5360 5318 5355 5298 5400 5306 5362 5308 5380 5341 5343 5320 5404 5326 5354 5340 5382 5331 5360 5375 5400 5297 5379 5324 5396 5325 5369 5306 5386 5316 5376 5332 5398 5348 5357 5390 5382 5328 5372 5370 5370 5329 5362 5294 5393 5308 5348 5323 5427 5342 5372 5349 5406 5331 5374 5322 5416 5336 5362 5338 5413 5350 5361 5351

Tree=0
num_leaves=50
num_cat=0
split_feature=6 13 8 8 17 6 13 6 23 6 17 17 11 16 6 7 15 16 26 6 26 24 26 7 9 9 7 7 6 20 23 25 9 26 15 9 0 22 6 6 6 7 23 0 26 4 26 16 11
split_gain=9603.3 7253.66 1190.57 324.531 228.594 110.744 126.184 64.5105 53.6556 48.8821 39.2176 34.0923 27.2433 21.709 21.2271 12.3392 11.805 8.18349 7.98764 5.90678 10.587 15.6704 8.71854 8.56921 4.82295 4.79054 7.51293 4.24296 2.7086 2.52192 10.4689 2.2173 1.0285 2.27559 0.897834 0.642669 0.623384 0.271557 0.539035 0.189147 0.165692 0.117138 0.0797649 0.0560041 0.0315874 0.0451868 0.0143885 0.0137856 0.0109778
threshold=36.500000000000007 3.5000000000000004 12.500000000000002 6.5000000000000009 1.0000000180025095e-35 39.500000000000007 3.5000000000000004 44.500000000000007 16.500000000000004 37.500000000000007 -1.0000000180025095e-35 1.0000000180025095e-35 28.500000000000004 10.500000000000002 34.500000000000007 18.500000000000004 5.5000000000000009 20.500000000000004 34.500000000000007 42.500000000000007 10.500000000000002 15.500000000000002 -20.499999999999996 721.50000000000011 1862.5000000000002 101.50000000000001 72.500000000000014 8.5000000000000018 1.5000000000000002 1.0000000180025095e-35 5.5000000000000009 30.500000000000004 178.50000000000003 -3.4999999999999996 1.5000000000000002 1795.5000000000002 15.500000000000002 22.500000000000004 28.500000000000004 23.500000000000004 3.5000000000000004 379.50000000000006 12.500000000000002 1.5000000000000002 -2.4999999999999996 4.5000000000000009 15.500000000000002 12.500000000000002 7.5000000000000009
decision_type=2 10 2 2 2 2 10 2 2 2 2 2 2 2 2 2 2 2 2 2 2 2 2 2 2 2 2 2 2 2 2 2 2 2 2 2 2 2 2 2 2 2 2 2 2 2 2 2 2
left_child=1 2 11 7 10 6 15 -2 9 -8 -3 27 29 -11 28 -5 -16 -9 19 20 22 -22 -7 -23 -18 26 -24 35 -12 30 -4 32 33 -30 36 -1 -34 40 42 -37 41 -36 -39 -42 45 -45 -46 -47 -49
right_child=3 4 12 5 -6 18 8 17 -10 13 14 -13 -14 -15 16 -17 24 -19 -20 -21 21 23 25 -25 -26 -27 -28 -29 31 -31 -32 -33 34 -35 37 39 -38 38 -40 -41 43 -43 -44 44 46 47 -48 48 -50
leaf_value=-1.2045019238468475 -1.1933876242606829 -1.4529609923277051 -1.3164530337730531 -1.3195464271279234 -1.4529609923898865 -1.3527429924988346 -1.2898294210178816 -1.4529609943867547 -1.2509251673698476 -1.3421721346602737 -1.2214913704852839 -1.4529609943856154 -1.3083801787066858 -1.4529609956882559 -1.2703876456942373 -1.4529609930343259 -1.2286241726296989 -1.3180174560616458 -1.3681519377031466 -1.4529609941970518 -1.3011824340339166 -1.4529609940570942 -1.4529609954997169 -1.3393875396525292 -1.1911567574598656 -1.4529609940022508 -1.3210411385063476 -1.242743857940279 -1.2237291420519325 -1.4529609928292866 -1.452960994376197 -1.2107450116846983 -1.1898213000956912 -1.1903814457014608 -1.1937447706615107 -1.1932992404899871 -1.20465637869747 -1.1905791778479022 -1.1983329535509817 -1.1862943408921602 -1.1895209299294964 -1.1876624887026495 -1.1862943408921602 -1.1896885888570348 -1.1864071608036049 -1.1883413115605883 -1.1878174058111086 -1.1862943408921602 -1.1871792685191691
leaf_weight=34.597202599048615 58.872594922780991 5.6978573203086844 6.9967338144779196 7.158962368965148 33.592858210206032 9.5303224176168424 46.838749557733536 12.310351952910425 52.001710161566734 25.862975656986237 24.757716000080109 5.3187717050313941 13.212124556303023 55.946093454957008 41.851009339094162 218.98840838670731 68.119703829288483 7.0778480917215338 11.261885300278662 8508.4745821803808 12.585570275783537 31.63051825761795 10.693057626485826 8.4096223860979062 69.315484285354614 289.9170508980751 7.2400766462087622 18.173777505755424 24.999401867389679 1896.689482986927 28.51080147922039 43.375372737646103 65.334033519029617 112.75975614786148 58.953709200024605 69.887410059571266 50.004822686314583 65.522747844457626 63.7670057117939 85.959892272949219 72.510600760579109 68.402524262666702 128.93983840942383 68.928938582539558 1659.0114741921425 68.577995702624321 75.646962895989418 225.6447172164917 370.13950441777706
leaf_count=22 24 26 20 20 154 25 31 46 27 20 20 28 30 56 26 1052 28 20 22 26895 23 94 29 20 20 993 20 25 26 8979 150 27 22 39 24 29 28 24 21 24 25 21 36 24 467 22 23 63 110
internal_value=0 1.03294 -0.405701 -0.619802 1.92927 -0.636873 -0.126655 1.40805 0.496493 0.149998 1.95468 1.83342 -0.651938 -0.316421 1.95904 -0.624433 1.62407 -0.174042 -0.66022 -0.661288 -0.5376 -0.122193 -0.60648 -0.428129 1.76567 -0.635642 -0.134072 1.89716 1.97753 -0.661724 -0.397679 1.98006 1.98312 1.89861 1.98695 1.94122 1.90041 1.99036 1.9594 1.96859 1.99336 1.95816 1.98556 1.99513 1.99593 1.99043 1.99826 1.99296 1.9945
internal_weight=0 5625.2 2159.35 9374.8 3465.85 9296.54 406.797 78.2608 180.65 128.648 3432.26 213.937 1945.41 81.8091 3426.56 226.147 179.286 19.3882 8889.74 8878.48 370.006 52.6257 317.381 40.0401 137.435 307.85 17.9331 208.618 3247.28 1932.2 35.5075 3222.52 3179.14 137.759 3041.38 190.445 115.339 2926.05 258.23 155.847 2667.82 127.356 194.463 2540.46 2467.95 733.291 1734.66 664.362 595.784
internal_count=40000 10583 9307 29417 1276 29327 1206 90 134 107 1122 128 9179 76 1096 1072 74 66 28121 28099 1204 137 1067 114 48 1042 49 100 1022 9149 170 1002 975 65 910 75 50 860 81 53 779 45 60 734 709 219 490 195 173
shrinkage=1


Tree=1
num_leaves=50
num_cat=0
split_feature=13 13 17 17 15 8 17 17 8 17 17 15 9 8 17 15 26 8 8 8 13 6 8 15 17 17 17 6 13 15 15 17 26 17 9 11 11 17 16 17 17 6 24 26 15 6 23 8 15
split_gain=5944.91 788.212 530.201 972.186 451.661 338.304 402.757 265.069 248.798 232.775 74.7899 61.1682 52.9464 50.558 50.9531 49.7602 47.7838 43.7782 35.9605 34.1253 33.6714 32.7545 30.5037 27.5034 24.049 42.6493 23.709 22.7084 21.9194 21.6198 18.6678 17.9342 17.6076 16.6111 16.5791 16.0112 15.7592 14.762 13.9 13.8663 13.6057 13.1261 13.0061 12.801 12.0404 11.4688 11.3208 10.9587 10.7401
threshold=3.5000000000000004 2.5000000000000004 7.5000000000000009 1.0000000180025095e-35 2.5000000000000004 12.500000000000002 -1.0000000180025095e-35 -4.4999999999999991 12.500000000000002 4.5000000000000009 3.5000000000000004 2.5000000000000004 120.50000000000001 133.50000000000003 17.500000000000004 1.5000000000000002 -1.4999999999999998 140.50000000000003 36.500000000000007 118.50000000000001 2.5000000000000004 44.500000000000007 99.500000000000014 10.500000000000002 1.0000000180025095e-35 5.5000000000000009 2.5000000000000004 40.500000000000007 1.5000000000000002 10.500000000000002 5.5000000000000009 5.5000000000000009 1.0000000180025095e-35 -4.4999999999999991 506.50000000000006 26.500000000000004 18.500000000000004 -2.4999999999999996 -1.0000000180025095e-35 9.5000000000000018 -6.4999999999999991 45.500000000000007 18.500000000000004 7.5000000000000009 13.500000000000002 90.500000000000014 12.500000000000002 93.500000000000014 10.500000000000002
decision_type=10 8 2 2 2 2 2 2 2 2 2 2 2 2 2 2 2 2 2 2 10 2 2 2 2 2 2 2 10 2 2 2 2 2 2 2 2 2 2 2 2 2 2 2 2 2 2 2 2
left_child=1 2 3 5 15 21 7 40 27 22 33 -8 16 43 29 20 -10 -13 -17 -11 -3 -1 -5 31 35 42 -24 -6 38 32 -30 -21 34 -2 -15 -14 41 47 44 -22 -7 -12 45 -4 -19 -26 -23 -9 -28
right_child=10 4 13 9 8 6 11 37 12 19 36 17 24 14 -16 18 -18 28 -20 23 39 46 26 -25 25 -27 48 -29 30 -31 -32 -33 -34 -35 -36 -37 -38 -39 -40 -41 -42 -43 -44 -45 -46 -47 -48 -49 -50
leaf_value=-1.4435371225224303 -1.2409922236409343 -1.2553126877873029 -1.2196954594921419 -1.3526060393156312 -1.4420464223277665 -1.2146779479386391 -1.3549799699589899 -1.2306275955651493 -1.2189967889614373 -1.2837609906328604 -1.3024731536435847 -1.2144571665942243 -1.2018205533015258 -1.2447836983242706 -1.2542752131552559 -1.4269956750628563 -1.3990938220334901 -1.3618717661946145 -1.2956130724330572 -1.3847121356026431 -1.4160974000075603 -1.3653330362259224 -1.4313709160648984 -1.301093531308372 -1.256132083748853 -1.2169412059390379 -1.4109879086253458 -1.1862943616580204 -1.2925685950113688 -1.2613541405989641 -1.243045180299857 -1.352645825305788 -1.3306178095673504 -1.4514353866860197 -1.3047726881256783 -1.3412049505765196 -1.236706476597748 -1.4249653685072645 -1.2760979123338521 -1.3253406719110432 -1.2812388841170754 -1.438413206129558 -1.3340686749323969 -1.3036260509367343 -1.2275040844489891 -1.390208228705432 -1.1862943616580204 -1.3878752792932176 -1.3663031880107768
leaf_weight=178.74991577863693 3.7527712881565085 15.86195647716522 135.20239585638046 69.940280616283417 60.019776672124863 69.908812254667282 72.589956969022751 4.6301284134387961 27.199727743864059 63.883196741342545 15.857830703258516 177.35692343115807 520.01785844564438 51.472726583480835 275.78151708841324 25.229500025510788 32.140473783016205 33.904068857431412 119.54737916588783 292.75700941681862 168.82178428769112 8.0098331272602064 886.42737033963203 72.714710175991058 129.32576596736908 444.2920153439045 779.25730016827583 3.684899926185607 93.355780690908432 105.74306678771973 412.16091895103455 431.46945425868034 261.22569707036018 7299.51853749156 438.91040325164795 8.3740188777446729 14.929970890283583 265.7548888027668 608.77171328663826 18.699298799037933 54.770268678665161 12.865794420242308 31.485540747642517 20.993670225143433 8.3017854392528516 6.7109565734863272 6.3169713020324698 103.52651986479759 57.776466965675354
leaf_count=86 20 83 740 320 31 385 318 25 149 322 74 977 2909 273 1445 25 124 153 593 1263 700 23 3584 358 676 2440 3258 21 465 549 2183 1974 1234 4323 2150 26 80 1086 3100 89 277 20 148 103 45 29 36 449 259
internal_value=0 0.616825 0.451084 0.296783 1.23824 0.8055 0.933336 0.161084 1.51617 -0.105347 -0.642528 1.2071 1.61845 1.01982 0.946304 0.229775 0.697515 1.25575 0.67786 0.322099 -0.0891904 -0.455821 -0.310519 0.265727 1.66637 1.53141 -0.336791 -0.409585 1.18481 0.826036 1.34104 0.206863 0.766473 -0.650329 0.878184 1.82265 0.662492 -0.259952 1.06349 -0.207529 1.42377 0.229314 1.10143 1.55318 0.508524 1.23548 0.99903 0.0515079 -0.216092
internal_weight=0 7653.07 6041.66 4752.33 1611.41 2098.11 1905.03 498.591 1263.25 2654.23 7346.92 1406.44 1199.55 1289.33 1133.13 348.16 59.3402 1333.85 144.777 860.824 203.383 193.077 1793.4 796.941 1140.21 611.814 1723.46 63.7047 1156.49 857.352 505.517 724.226 751.609 7303.27 490.383 528.392 43.6536 373.912 650.978 187.521 124.679 28.7236 167.522 156.196 42.2059 136.037 14.3268 108.157 837.034
internal_count=40000 35483 27440 20946 8043 9608 9463 2222 6553 11338 4517 7241 6501 6494 5651 1490 273 6923 618 3917 872 145 7421 3595 6228 3293 7101 52 5946 4206 2648 3237 3657 4343 2423 2935 174 1560 3298 789 662 94 853 843 198 705 59 474 3517
shrinkage=1


Tree=2
num_leaves=50
num_cat=0
split_feature=13 6 6 23 17 6 9 8 22 9 6 22 22 7 9 26 15 25 6 26 6 9 26 6 15 6 25 2 4 1 15 6 16 6 15 8 0 6 7 16 6 0 22 6 6 8 6 26 15
split_gain=6926.13 11887.6 151.182 85.1529 82.0293 50.2458 33.6678 31.2069 20.4008 20.7758 17.1012 15.4641 10.1195 8.71439 5.03621 12.5263 3.9642 1.83888 1.48602 1.0153 0.591109 0.423225 0.782313 2.88994 0.398035 0.584494 1.38623 0.349377 0.609463 0.186495 0.638239 1.56705 0.179766 1.44287 0.151919 0.130398 0.10957 0.105215 0.100678 0.0645403 0.0475164 0.0633901 0.0235079 0.0150037 0.0138591 0.0141352 0.0151817 0.0486307 0.112583
threshold=3.5000000000000004 37.500000000000007 42.500000000000007 16.500000000000004 1.0000000180025095e-35 34.500000000000007 337.50000000000006 173.50000000000003 9.5000000000000018 1800.5000000000002 60.500000000000007 2.5000000000000004 20.500000000000004 604.50000000000011 101.50000000000001 -1.0000000180025095e-35 4.5000000000000009 8.5000000000000018 53.500000000000007 -1.0000000180025095e-35 33.500000000000007 263.50000000000006 -1.4999999999999998 60.500000000000007 1.5000000000000002 56.500000000000007 8.5000000000000018 1.5000000000000002 19.500000000000004 1.5000000000000002 14.500000000000002 49.500000000000007 5.5000000000000009 41.500000000000007 18.500000000000004 26.500000000000004 7.5000000000000009 74.500000000000014 518.50000000000011 39.500000000000007 43.500000000000007 18.500000000000004 25.500000000000004 60.500000000000007 96.500000000000014 1750.5000000000002 50.500000000000007 -5.4999999999999991 4.5000000000000009
decision_type=10 2 2 2 2 2 2 2 2 2 2 2 2 2 2 2 2 2 2 2 2 2 2 2 2 2 2 2 2 2 2 2 2 2 2 2 2 2 2 2 2 2 2 2 2 2 2 2 2
left_child=29 5 3 8 14 20 -7 -5 16 12 18 -8 19 17 15 -4 -3 -13 -6 -10 34 22 23 -16 25 26 38 28 -26 30 32 -32 33 -1 -2 -29 -27 -25 -23 -18 41 -37 -24 -38 45 46 47 48 -42
right_child=1 2 4 7 10 6 11 -9 9 -11 -12 13 -14 -15 21 -17 39 -19 -20 -21 -22 24 42 37 27 36 -28 35 -30 -31 31 -33 -34 -35 -36 40 43 -39 -40 -41 44 -43 -44 -45 -46 -47 -48 -49 -50
leaf_value=-1.4032960776266923 -1.4529610431917004 -1.24483977098101 -1.309650775438072 -1.418034522720693 -1.4529610444435825 -1.2892442443398 -1.3617230560597113 -1.2917840946143677 -1.2214129327025818 -1.3179872915172688 -1.2754207777361317 -1.4292055498434948 -1.2805918042704847 -1.3914447160853523 -1.2381473970432826 -1.1913049263378337 -1.1862943742850665 -1.4529610431845743 -1.386673747797506 -1.1893442665066196 -1.4437825670274367 -1.1955173960100107 -1.1867097054161306 -1.195239439808685 -1.2075857417947631 -1.1927803731182363 -1.2244651030098812 -1.1938671697495724 -1.1873188161184489 -1.4529610442637511 -1.383341820396109 -1.4529610441665888 -1.4529610442624259 -1.4529610443622272 -1.4483486341936604 -1.1936270667556663 -1.188973982885233 -1.1862943742850665 -1.1862943742850665 -1.1926714536905538 -1.1941068741917698 -1.1862943742850665 -1.1901353094220875 -1.1862943742850665 -1.1887326094383286 -1.1887326094383286 -1.1863893177202844 -1.1864648741068571 -1.1862943742850665
leaf_weight=6.7862882018089286 3137.2723929584026 14.574997335672377 11.759128689765928 38.599983304738998 10.099542111158373 22.645498633384705 40.634922593832016 39.731331408023834 14.555971801280974 39.953341752290726 13.288734406232832 56.751635789871216 23.464101523160934 43.831066340208054 15.689914613962172 37.355069875717163 56.875630617141724 76.524314969778061 5.0845455527305594 30.684612512588501 73.441553920507431 22.256106406450272 112.66282975673676 20.924332141876221 21.977160692214966 38.862315565347672 16.22544601559639 24.716040849685669 45.675975918769836 7416.9469792544842 4.8412027657032004 9.7336995005607587 172.38520878553391 42.381325721740723 73.072613120079041 22.093877881765366 25.534643739461899 35.389281272888184 25.278058052062988 22.012763619422913 29.947123885154724 25.278058052062988 24.365097999572754 115.0151641368866 28.062449544668198 28.062449544668198 2464.2241142988205 274.44240128993988 48.028310298919678
leaf_count=26 1131 24 36 20 46 22 27 30 20 30 30 25 20 25 26 33 45 28 20 26 35 20 90 20 26 34 21 23 37 34373 20 49 816 199 22 20 21 28 20 20 28 20 21 91 23 23 1954 218 38
internal_value=0 0.693529 1.91487 1.2081 1.97082 -0.631281 -0.189962 0.322968 1.55113 1.25648 0.280316 -0.310652 1.58993 -0.438303 1.98452 1.66655 1.89368 -0.565511 -0.444697 1.86632 -0.663588 1.98903 1.94541 1.86102 1.99183 1.95291 1.87067 1.99497 1.92392 -0.665786 -0.638119 -0.435419 -0.651454 -0.598117 -0.665617 1.9966 1.98214 1.96676 1.95682 1.98221 1.99721 1.9658 1.98976 1.99513 1.99773 1.99795 1.99817 1.99203 1.97
internal_weight=0 7346.92 3822.75 280.453 3542.3 3524.17 240.387 78.3313 202.121 108.658 28.4728 217.742 68.7047 177.107 3513.83 49.1142 93.4634 133.276 15.1841 45.2406 3283.79 3464.71 209.031 72.0035 3255.68 243.172 63.7596 3012.51 67.6531 7653.07 236.128 14.5749 221.553 49.1676 3210.35 2944.85 179.412 56.3136 47.5342 78.8884 2920.14 47.3719 137.028 140.55 2872.77 2844.7 2816.64 352.418 77.9754
internal_count=40000 4517 3202 235 2967 1315 127 50 185 96 96 105 66 78 2871 69 89 53 66 46 1188 2802 185 74 2617 207 61 2410 63 35483 1110 69 1041 225 1153 2347 146 48 40 65 2324 40 111 112 2284 2261 2238 284 66
shrinkage=1


Tree=3
num_leaves=50
num_cat=0
split_feature=13 17 17 17 17 15 17 17 8 17 17 17 17 15 13 15 8 8 17 13 9 15 15 8 8 15 15 9 17 13 26 17 16 17 15 26 9 9 6 13 15 26 8 15 8 26 24 26 9
split_gain=6482.65 814.884 1170.43 573.734 498.337 344.755 271.369 139.676 136.346 98.712 94.5383 77.5586 74.0559 48.715 43.6733 137.694 43.5026 30.1294 28.8695 28.8387 28.445 24.1407 22.3018 21.8511 21.4215 21.0181 19.2248 19.1789 18.6017 18.4401 15.2467 15.1419 13.9565 13.841 13.089 13.3698 13.0334 12.6652 12.5769 12.1931 12.0404 11.5732 11.1167 10.8734 10.1058 10.1032 9.6664 9.55075 14.7194
threshold=2.5000000000000004 1.0000000180025095e-35 5.5000000000000009 1.0000000180025095e-35 -1.0000000180025095e-35 1.5000000000000002 -4.4999999999999991 9.5000000000000018 140.50000000000003 5.5000000000000009 -1.0000000180025095e-35 -3.4999999999999996 3.5000000000000004 3.5000000000000004 3.5000000000000004 1.5000000000000002 120.50000000000001 118.50000000000001 17.500000000000004 1.5000000000000002 413.50000000000006 4.5000000000000009 2.5000000000000004 120.50000000000001 99.500000000000014 10.500000000000002 10.500000000000002 220.50000000000003 9.5000000000000018 2.5000000000000004 1.0000000180025095e-35 -2.4999999999999996 -1.0000000180025095e-35 -6.4999999999999991 10.500000000000002 1.0000000180025095e-35 1502.5000000000002 427.50000000000006 90.500000000000014 2.5000000000000004 13.500000000000002 6.5000000000000009 93.500000000000014 5.5000000000000009 22.500000000000004 -1.4999999999999998 20.500000000000004 -1.4999999999999998 460.50000000000006
decision_type=8 2 2 2 2 2 2 2 2 2 2 2 2 2 10 2 2 2 2 10 2 2 2 2 2 2 2 2 2 10 2 2 2 2 2 2 2 2 2 10 2 2 2 2 2 2 2 2 2
left_child=1 4 12 10 6 28 33 16 44 20 11 -2 24 -10 15 29 41 -9 34 32 45 -13 -22 -14 -3 30 -25 -23 39 -12 -18 42 40 -1 35 37 -32 -19 -24 -5 -15 -4 -8 -21 -6 -7 -11 -34 -49
right_child=3 2 7 5 8 9 31 17 13 46 14 21 23 19 -16 -17 25 18 -20 43 22 27 38 26 -26 -27 -28 -29 -30 -31 36 -33 47 -35 -36 -37 -38 -39 -40 -41 -42 -43 -44 -45 -46 -47 -48 48 -50
leaf_value=-1.4252724317524839 -1.4268310062410696 -1.2768405946433699 -1.3987506244292709 -1.3520002403919058 -1.451283857728987 -1.3372991600262769 -1.400706479726209 -1.4210621535532233 -1.2961641988798063 -1.4231250559916897 -1.4077715081489968 -1.2121292848167933 -1.3185481071552161 -1.2773836255073003 -1.4524714185765575 -1.4397818239070534 -1.3086050656018215 -1.4133781247780728 -1.3858868055683524 -1.3542888922039544 -1.2881168711051336 -1.2001268132777863 -1.3798232740980823 -1.2454011927719846 -1.2130313600246216 -1.3498152000065433 -1.3094424717318547 -1.3959298479780891 -1.3204773769651357 -1.2524311086093063 -1.2557411040704942 -1.2143123392924973 -1.3771957680320441 -1.3586209969962677 -1.3869820821921226 -1.3175399273143442 -1.3009231753354467 -1.3460183471109595 -1.2445894684470284 -1.2145676686357323 -1.411751309875519 -1.3105059383357811 -1.2513801119011596 -1.3978456953352769 -1.4186529807561301 -1.2308685607293075 -1.3813749847230783 -1.2757143584509578 -1.3577341279322048
leaf_weight=71.663526505231857 86.412243336439133 54.778552979230881 65.632940411567688 6.7771710753440848 203.98243436217308 13.014684975147246 5.2376569509506217 90.089682996273041 88.584950953722 458.66006410121918 9.0847854018211347 28.979282915592194 49.886868298053741 33.904068857431412 7266.9263517856598 576.28168860077858 472.09108316898346 31.114727556705475 284.60971680283546 66.569896578788757 38.60206863284111 6.7655850350856808 143.13669380545616 647.11009207367897 1330.0739290714264 87.56356680393219 50.535782396793365 19.195913553237915 21.691430151462555 48.110638827085495 128.01968941092491 267.21328866481781 271.83010229468346 55.121211528778076 69.481725722551346 164.7147324681282 127.36083415150642 271.27887105941772 7.2241279482841483 136.04587560892105 8.3017854392528516 19.212470173835754 103.52651986479759 412.16091895103455 177.49868509173393 28.343611717224121 63.083640158176422 23.54794105887413 308.96549874544144
leaf_count=395 471 247 350 34 209 64 28 494 411 2478 49 118 239 153 4192 2767 2230 169 1493 335 177 27 745 2761 5424 438 239 102 98 209 559 1092 1410 279 365 788 595 1350 31 550 45 91 449 2183 951 119 329 106 1562
internal_value=0 0.800509 1.06839 -0.539878 0.297009 0.209727 1.16516 0.477259 0.0234178 -0.0771164 -0.625316 0.185273 1.57047 0.187305 -0.639819 -0.387997 0.756718 0.201299 0.261525 0.131097 0.468163 1.11425 0.303753 1.31682 1.70739 0.827658 1.36254 0.413909 1.52101 1.09189 0.883371 1.59179 0.26885 -0.100005 0.398077 0.458313 1.08021 0.33345 0.129684 1.65205 0.82481 0.0752594 1.27723 -0.0549454 -0.498067 1.21934 -0.317827 0.230024 0.343687
internal_weight=0 6041.66 3943.56 8958.34 2098.11 916.579 502.762 1811.17 1595.35 752.065 8041.76 141.353 2132.39 1213.87 7900.4 633.477 899.881 911.289 821.2 1125.28 230.321 54.9408 188.963 747.533 1384.85 815.035 697.646 25.9615 164.514 57.1954 727.472 375.977 646.549 126.785 536.59 467.108 255.381 302.394 150.361 142.823 42.2059 84.8454 108.764 478.731 381.481 41.3583 521.744 604.344 332.513
internal_count=40000 27440 17832 12560 9608 4625 2243 8922 7365 3943 7935 718 8910 6205 7217 3025 4263 4659 4165 5794 1136 247 953 3239 5671 3822 3000 129 682 258 3384 1569 3276 674 2672 2307 1154 1519 776 584 198 441 477 2518 1160 183 2807 3078 1668
shrinkage=1


Tree=4
num_leaves=50
num_cat=0
split_feature=6 13 8 8 17 6 13 6 23 6 17 11 17 16 6 7 15 26 1 6 26 24 26 7 9 7 11 7 20 6 6 25 9 26 15 9 0 22 8 4 6 7 23 9 15 26 0 21 11
split_gain=8131.56 5376.2 991.338 281.627 163.54 105.966 111.554 46.207 41.6967 39.4342 28.2394 24.9773 24.8374 20.0581 12.651 11.1939 8.23999 7.78364 7.73202 5.80399 10.1531 13.8015 8.2226 8.0209 4.56213 6.73464 3.59668 2.88189 2.48698 9.76077 1.85057 1.50737 0.702895 2.64647 0.60159 0.432842 0.424363 0.200029 0.438321 0.137319 0.136904 0.0852562 0.167856 0.0701845 0.0362735 0.0728804 0.0729307 0.015562 0.0207703
threshold=36.500000000000007 3.5000000000000004 12.500000000000002 6.5000000000000009 1.0000000180025095e-35 39.500000000000007 3.5000000000000004 44.500000000000007 16.500000000000004 37.500000000000007 -1.0000000180025095e-35 28.500000000000004 1.0000000180025095e-35 10.500000000000002 34.500000000000007 18.500000000000004 5.5000000000000009 34.500000000000007 22.500000000000004 42.500000000000007 10.500000000000002 15.500000000000002 -20.499999999999996 721.50000000000011 101.50000000000001 72.500000000000014 10.500000000000002 8.5000000000000018 1.0000000180025095e-35 3.5000000000000004 1.5000000000000002 30.500000000000004 120.50000000000001 -3.4999999999999996 1.5000000000000002 1795.5000000000002 15.500000000000002 22.500000000000004 872.50000000000011 18.500000000000004 5.5000000000000009 397.50000000000006 9.5000000000000018 337.50000000000006 3.5000000000000004 -2.4999999999999996 15.500000000000002 2.5000000000000004 16.500000000000004
decision_type=2 10 2 2 2 2 10 2 2 2 2 2 2 2 2 2 2 2 2 2 2 2 2 2 2 2 2 2 2 2 2 2 2 2 2 2 2 2 2 2 2 2 2 2 2 2 2 2 2
left_child=1 2 12 7 10 6 15 -2 9 -8 -3 28 27 -11 30 -5 -16 19 -9 20 22 -22 -7 -23 25 -24 -18 35 29 -4 -12 32 33 -32 36 -1 -34 40 43 -37 41 42 -36 -39 45 46 -42 48 -46
right_child=3 4 11 5 -6 17 8 18 -10 13 14 -13 -14 -15 16 -17 26 -19 -20 -21 21 23 24 -25 -26 -27 -28 -29 -30 -31 31 -33 34 -35 37 39 -38 38 -40 -41 44 -43 -44 -45 47 -47 -48 -49 -50
leaf_value=0.15142837141019441 0.16045773068998037 -0.065417150869239202 0.065146338289661862 0.059274316827004181 -0.065233452434071179 0.031653953221618007 0.083036085297884185 -0.065814259473337799 0.11651809999322736 0.041269914250825046 0.13739732569279622 0.070476744018608345 -0.065393446623303819 -0.065285874660250959 0.099726723204893231 -0.065186089064304301 0.16351433520754755 0.018813375222644778 0.065483665988536791 -0.065163810577603162 0.077387004088046496 -0.065356408423274434 -0.065548158945887766 0.044247221348044076 -0.065238285286940118 0.058887240636712627 0.13278964503911136 0.12125706582771281 -0.065186676681947761 -0.065515504893669446 0.11717956335438391 0.14590498788880615 0.16223753368698612 0.16185946729077516 0.15698304024738097 0.16520272572932046 0.15067809574777569 0.1611465849467599 0.15538828583987568 0.15934673154570178 0.15903309186818179 0.16410153480605519 0.16375078072549165 0.16511548683749766 0.16467695078061306 0.16461000467075718 0.1638310598105498 0.16498794365847036 0.16317726803624
leaf_weight=38.605574250221252 65.907225832343102 5.4723726212978354 7.2379336506128302 7.485551878809928 32.05207821726799 9.6658830195665342 50.164365902543068 11.879044622182848 56.378691256046295 26.377455219626427 27.49958735704422 13.775598883628843 5.1031362861394873 53.489990592002869 45.129187762737274 208.68976072967052 77.31119430065155 11.197851181030272 7.2058585882186881 8102.1734050214291 13.122677952051161 30.317021310329437 10.310266077518465 8.5626809448003751 276.76012143492699 7.522890403866767 75.120721518993378 19.936005964875221 1807.5356938242912 27.211914017796516 15.231649979948996 48.388208776712418 73.49937641620636 102.25419217348099 66.828960955142975 112.95963054895401 55.92282535135746 61.55253429710865 79.936234876513481 62.033764541149139 53.809115692973137 145.80066561698914 81.147934705018997 161.35064223408699 488.85762692987919 363.6975861787796 77.037542060017586 1638.1244549453259 113.86153635382652
leaf_count=22 24 26 20 20 154 25 31 46 27 20 20 30 28 56 26 1052 20 22 20 26895 23 94 29 20 993 20 28 25 8979 150 20 27 22 31 26 30 28 21 24 23 20 39 23 41 125 93 21 408 33
internal_value=0 0.901677 -0.390049 -0.603861 1.59717 -0.621215 -0.119948 1.2078 0.446919 0.135498 1.61586 -0.636761 1.5285 -0.300942 1.61908 -0.608764 1.3726 -0.645042 -0.162403 -0.646145 -0.521224 -0.112882 -0.591016 -0.412178 -0.620794 -0.130553 1.48373 1.57619 -0.646794 -0.380634 1.63241 1.63437 1.63674 1.56067 1.63932 1.61012 1.57243 1.64192 1.61741 1.63127 1.64437 1.62385 1.60694 1.6402 1.64657 1.63882 1.61858 1.64828 1.64394
internal_weight=0 5984.29 2094.4 8957.21 3889.89 8872.22 402.586 84.9921 186.411 130.032 3857.83 1855.76 238.638 79.8674 3852.36 216.175 197.561 8469.63 19.0849 8458.43 356.262 52.0024 304.259 38.8797 294.593 17.8332 152.432 233.535 1841.99 34.4498 3654.8 3627.3 3578.91 117.486 3461.43 213.599 129.422 3332 302.839 174.993 3029.17 293.778 147.977 222.903 2735.39 494.544 130.847 2240.84 602.719
internal_count=40000 10583 9307 29417 1276 29327 1206 90 134 107 1122 9179 128 76 1096 1072 74 28121 66 28099 1204 137 1067 114 1042 49 48 100 9149 170 1022 1002 975 51 924 75 50 874 86 53 788 88 49 62 700 134 41 566 158
shrinkage=0.1


Tree=5
num_leaves=50
num_cat=0
split_feature=13 13 17 17 15 8 17 17 17 8 17 15 15 21 17 8 8 6 13 8 24 8 17 15 8 6 15 16 8 17 17 17 15 13 25 6 17 17 17 17 9 15 9 17 13 15 26 9 6
split_gain=5184.28 587.6 411.479 789.259 325.72 270.635 300.419 211.031 203.601 181.39 68.9645 45.3703 40.3933 38.3581 38.332 29.4609 28.4306 28.3703 27.4357 27.248 26.9821 26.6424 22.0209 21.8925 20.6101 18.8307 17.1947 32.7338 16.7506 14.5649 14.5168 13.3934 13.3929 18.9547 13.3843 13.0465 11.9495 11.3557 10.0929 18.2465 9.81973 9.49774 9.12081 9.07032 8.83127 9.21808 9.02411 12.5797 8.83445
threshold=3.5000000000000004 2.5000000000000004 7.5000000000000009 1.0000000180025095e-35 2.5000000000000004 12.500000000000002 -1.0000000180025095e-35 -4.4999999999999991 4.5000000000000009 12.500000000000002 3.5000000000000004 2.5000000000000004 1.5000000000000002 1.0000000180025095e-35 11.500000000000002 140.50000000000003 36.500000000000007 44.500000000000007 2.5000000000000004 93.500000000000014 20.500000000000004 118.50000000000001 2.5000000000000004 10.500000000000002 127.50000000000001 40.500000000000007 10.500000000000002 -1.0000000180025095e-35 93.500000000000014 -4.4999999999999991 5.5000000000000009 -2.4999999999999996 4.5000000000000009 1.5000000000000002 17.500000000000004 91.500000000000014 9.5000000000000018 17.500000000000004 1.0000000180025095e-35 5.5000000000000009 291.50000000000006 10.500000000000002 491.50000000000006 -6.4999999999999991 1.5000000000000002 5.5000000000000009 -1.4999999999999998 460.50000000000006 20.500000000000004
decision_type=10 8 2 2 2 2 2 2 2 2 2 2 2 2 2 2 2 2 10 2 2 2 2 2 2 2 2 2 2 2 2 2 2 10 2 2 2 2 2 2 2 2 2 2 10 2 2 2 2
left_child=1 2 3 5 12 17 7 43 19 25 29 -8 18 -11 24 -13 -14 -1 -3 -5 35 -10 -21 30 -4 -6 27 -17 -16 -2 -23 -9 -26 -34 -12 38 -20 -30 -15 42 -22 -24 -40 -7 46 -46 -29 -48 -49
right_child=10 4 14 8 9 6 11 31 21 13 34 15 16 20 28 26 -18 -19 36 22 40 23 41 -25 32 -27 -28 44 37 -31 -32 -33 33 -35 -36 -37 -38 -39 39 -41 -42 -43 -44 -45 45 -47 47 48 -50
leaf_value=-0.055502642905136651 0.12572309190549091 0.1125747556116727 0.12244178268891237 0.033040169249313772 -0.053923913244153354 0.14376701314582432 0.028093911020051932 0.0050282782745413382 0.089635524939444433 0.018292657768774274 0.019826545686897207 0.14414697373741495 -0.03878564917157884 0.15593153188746167 0.15266216638174021 0.023247562729497854 0.079060255217481543 0.086644908775112495 -0.028247702373472329 -0.043134016556729146 0.058222351591931724 0.001891732981329487 -0.023225433904602782 0.075345210717146671 0.0084265480411930653 0.16753370613061028 0.13512272457865812 0.10788147311843273 0.087976888800268993 -0.063562575846044522 0.030638170536990653 -0.036882701076047471 0.05248511654573941 0.091516689501241699 0.13337211958517489 0.078629304002690123 0.054625215260670518 0.1137723330294248 0.041485194010010072 0.14727025831712645 0.11501984602569354 0.018565562735757143 0.11613622299672158 0.09161723379463424 0.08605414361665413 0.12155547234849258 0.014359804657506853 0.042703483791117075 0.095058917824379599
leaf_weight=171.25300578773022 4.0674824416637412 17.190069526433945 68.931560084223747 67.119152098894119 57.469458535313606 77.582233399152756 74.384791597723961 108.24404981732368 68.103255376219749 26.919394373893738 28.917916759848595 196.68971237540245 24.403257772326469 528.72951728105545 65.806076645851135 55.249299228191376 127.0744494497776 15.294551923871039 165.0721457451582 859.40311352908611 41.895402491092682 291.86472609639168 766.10787507891655 76.699276179075241 39.614200040698051 4.1144879460334769 143.00194339454174 285.626539722085 370.8152097761631 6951.1855755746365 441.27525594830513 257.9647404551506 298.01114931702614 213.59228849411011 16.195466190576553 29.578773066401482 19.4490577429533 316.1647692322731 18.684779033064842 434.15927003324032 111.32384000718594 58.537169307470322 131.92515476047993 58.500243961811066 94.579795062541962 322.63934621214867 24.228905633091927 36.370577767491341 283.08117447793484
leaf_count=86 20 83 335 302 31 385 318 474 322 103 100 977 25 2658 332 241 593 59 700 3593 190 1263 3266 358 168 21 706 1379 1760 4323 1974 1086 1351 1021 74 136 89 1527 83 2167 523 260 641 277 447 1565 103 160 1345
internal_value=0 0.553778 0.409868 0.272646 1.06772 0.713907 0.820429 0.150177 -0.0973824 1.28634 -0.626525 1.04252 0.210502 1.36442 0.892995 1.08182 0.600751 -0.438483 -0.0825602 -0.294422 1.38896 0.295639 -0.319325 0.245122 0.708899 -0.391281 1.02499 0.982652 1.04465 -0.634519 0.191941 -0.244946 0.644432 0.687806 0.605888 1.44178 -0.195127 0.998486 1.45919 1.36866 0.994895 -0.202589 1.06875 1.21348 1.02226 1.13508 0.947459 0.838292 0.890981
internal_weight=0 7944.73 6206.74 4833.8 1737.99 2204.69 2018.14 502.291 2629.11 1384.8 7000.37 1515.85 353.189 1323.22 1372.94 1441.47 151.478 186.548 201.711 1751.17 1296.3 877.943 1684.05 809.839 620.149 61.5839 1244.78 1101.78 752.786 6955.25 733.14 366.209 551.218 511.603 45.1134 1143.08 184.521 686.98 1113.5 584.769 153.219 824.645 150.61 136.082 1046.53 417.219 629.307 343.681 319.452
internal_count=40000 35483 27440 20946 8043 9608 9463 2222 11338 6553 4517 7241 1490 6501 6494 6923 618 145 872 7421 6398 3917 7119 3595 2875 52 5946 5240 3619 4343 3237 1560 2540 2372 174 5685 789 3287 5549 2891 713 3526 724 662 4999 2012 2987 1608 1505
shrinkage=0.1


Tree=6
num_leaves=50
num_cat=0
split_feature=13 6 6 23 17 6 9 8 22 6 22 24 7 0 9 9 26 15 25 25 6 9 26 6 15 6 25 2 4 1 7 8 7 26 8 0 6 16 6 9 7 15 4 6 8 8 16 22 1
split_gain=6021.17 9130.03 97.0368 60.9036 54.0774 48.6222 29.5423 25.8857 14.527 14.3402 13.7458 16.3976 8.39649 5.31152 7.7182 3.38505 8.89799 2.53973 1.83041 1.42862 0.599961 0.281527 0.531644 1.67642 0.265676 0.393402 0.941435 0.236122 0.41457 0.189047 0.645125 5.95849 0.155913 0.083827 0.0837454 0.0719423 0.0712915 0.0503738 0.0317968 0.0538602 0.0146325 0.0123574 0.0114003 0.0108862 0.0427332 0.011251 0.0104805 0.0128297 0.0211624
threshold=3.5000000000000004 37.500000000000007 42.500000000000007 16.500000000000004 1.0000000180025095e-35 34.500000000000007 337.50000000000006 173.50000000000003 2.5000000000000004 60.500000000000007 9.5000000000000018 8.5000000000000018 604.50000000000011 11.500000000000002 793.50000000000011 101.50000000000001 -1.0000000180025095e-35 4.5000000000000009 8.5000000000000018 21.500000000000004 33.500000000000007 263.50000000000006 -1.0000000180025095e-35 60.500000000000007 1.5000000000000002 56.500000000000007 8.5000000000000018 1.5000000000000002 19.500000000000004 1.5000000000000002 161.50000000000003 1019.5000000000001 877.50000000000011 1.0000000180025095e-35 26.500000000000004 7.5000000000000009 74.500000000000014 39.500000000000007 43.500000000000007 1855.5000000000002 143.50000000000003 27.500000000000004 26.500000000000004 67.500000000000014 1707.5000000000002 93.500000000000014 26.500000000000004 6.5000000000000009 21.500000000000004
decision_type=10 2 2 2 2 2 2 2 2 2 2 2 2 2 2 2 2 2 2 2 2 2 2 2 2 2 2 2 2 2 2 2 2 2 2 2 2 2 2 2 2 2 2 2 2 2 2 2 2
left_child=29 5 3 10 15 20 -7 -5 -8 19 17 -12 18 -13 -15 16 -4 -3 -10 -6 32 22 23 -17 25 26 33 28 -26 30 31 -1 -2 -23 -29 -27 -25 -19 39 -36 -24 43 -37 44 45 -40 -47 -48 -49
right_child=1 2 4 7 9 6 8 -9 12 -11 11 13 -14 14 -16 21 -18 37 -20 -21 -22 24 40 36 27 35 -28 34 -30 -31 -32 -33 -34 -35 38 42 -38 -39 41 -41 -42 -43 -44 -45 -46 46 47 48 -50
leaf_value=-0.065189016071906553 -0.065132957470958874 0.12054493983268073 0.065156143714659595 -0.030629995526820431 -0.065488492750233038 0.088102743398006 0.024063606092063546 0.083239940913059626 -0.041356780101261044 0.098325978979201173 0.049184389883910072 0.16499895073344828 -0.0042751095445506485 0.15774641987678301 0.080599562707506234 0.13054080430719742 0.16112065828763458 0.16541999810044133 -0.065448108473286415 6.0973979274665788e-06 -0.055672930938725801 0.16533843054007447 0.16286431179445726 0.15811037644186945 0.14837985521144276 0.160005169858256 0.13517802529070175 0.15923877097750935 0.16417459157985212 -0.065185749373365062 -0.065232969856811138 0.036082917079180571 -0.060386351416934284 0.15740232054438602 0.1589316477482082 0.16502602267669908 0.16496966588710227 0.1601054382217888 0.16324193216758331 0.16530433693231816 0.16507815955874927 0.16282814117351782 0.16293765523052672 0.16499235370600404 0.16061236992180358 0.16487536326504204 0.16500366449730933 0.16428685971744847 0.16169111127538416
leaf_weight=46.991491168737411 2982.9692381024361 15.906440183520315 12.549484401941298 37.964356005191803 9.6125250011682528 23.701292887330055 40.799100548028946 42.104696169495583 55.190353691577911 14.105915427207945 34.187622874975204 30.096107393503189 43.425823718309402 22.102641552686691 31.379221901297569 21.758298933506012 41.994127154350281 63.972525477409363 73.587660685181618 5.0961724668741217 70.206803187727928 28.440556645393372 41.666265368461609 23.482227623462677 24.549190878868103 43.658313512802124 17.990110516548157 27.746471881866455 51.435277596116066 7068.0856193304062 171.76843163371086 6.6293784379959098 70.845237791538239 25.017469823360443 24.848375871777534 125.27266323566437 42.714839458465576 24.729094728827477 51.638171017169952 28.443895816802979 105.32410669326782 31.610775679349899 33.032639116048813 1664.3253947496414 26.110684886574745 1177.9982835799456 116.74028396606445 125.66552390158176 41.873423919081688
leaf_count=232 1125 24 36 20 44 22 27 30 25 30 29 27 25 20 20 30 33 45 28 22 35 20 31 20 26 34 21 23 37 34373 855 23 28 20 20 88 30 20 38 20 74 23 24 1169 20 830 82 90 32
internal_value=0 0.619034 1.58642 1.04033 1.62787 -0.615018 -0.178045 0.292491 -0.29589 0.262887 1.3096 1.07528 -0.423006 1.31393 1.12482 1.63781 1.39041 1.5734 -0.551233 -0.427964 -0.648127 1.64127 1.60771 1.54621 1.64342 1.61343 1.54965 1.64583 1.59072 -0.650948 -0.622438 -0.526683 -0.650228 1.61624 1.6471 1.63599 1.62536 1.63938 1.64756 1.62333 1.64451 1.64796 1.6459 1.64815 1.64623 1.64693 1.64744 1.64199 1.63638
internal_weight=0 7647.87 4287.14 302.443 3984.7 3360.73 236.704 80.0691 213.003 28.8146 222.374 117.766 172.204 83.578 53.4819 3955.89 54.5436 104.608 128.778 14.7087 3124.02 3901.34 234.946 87.9554 3666.4 273.412 71.4481 3392.99 75.9845 7293.47 225.389 53.6209 3053.81 53.458 3317 201.964 66.1971 88.7016 3289.25 53.2923 146.99 3235.96 158.305 3204.35 1540.03 1513.92 1462.28 284.279 167.539
internal_count=40000 4517 3202 235 2967 1315 127 50 105 96 185 96 78 67 40 2871 69 89 53 66 1188 2802 185 80 2617 207 61 2410 63 35483 1110 255 1153 40 2347 146 50 65 2324 40 105 2284 112 2261 1092 1072 1034 204 122
shrinkage=0.1


Tree=7
num_leaves=50
num_cat=0
split_feature=13 17 17 17 17 15 17 8 17 17 17 17 17 13 15 15 8 9 15 16 8 8 15 8 15 15 17 9 17 13 15 13 17 15 17 13 15 26 26 9 9 6 17 6 24 26 11 9 13
split_gain=5544.77 613.485 834.141 534.57 392.066 270.485 198.638 121.517 99.1398 89.4172 86.0918 67.633 65.2922 42.5375 117.811 40.3556 29.8945 22.4872 22.0944 35.7276 20.6508 20.5515 18.7644 18.6058 18.336 17.4198 15.8846 14.8657 14.6081 13.7787 13.0654 17.1072 12.8129 12.375 12.2187 11.6122 11.7089 11.2018 10.3575 13.3208 10.3134 9.90563 9.85725 9.29194 9.08604 8.88177 10.964 9.22392 8.27923
threshold=2.5000000000000004 1.0000000180025095e-35 6.5000000000000009 1.0000000180025095e-35 -1.0000000180025095e-35 1.5000000000000002 -4.4999999999999991 120.50000000000001 4.5000000000000009 -1.0000000180025095e-35 5.5000000000000009 11.500000000000002 -3.4999999999999996 3.5000000000000004 1.5000000000000002 2.5000000000000004 127.50000000000001 413.50000000000006 10.500000000000002 -1.0000000180025095e-35 93.500000000000014 93.500000000000014 10.500000000000002 114.50000000000001 2.5000000000000004 4.5000000000000009 2.5000000000000004 220.50000000000003 17.500000000000004 2.5000000000000004 3.5000000000000004 1.5000000000000002 9.5000000000000018 10.500000000000002 -6.4999999999999991 1.5000000000000002 5.5000000000000009 8.5000000000000018 -1.4999999999999998 460.50000000000006 687.50000000000011 90.500000000000014 -2.4999999999999996 17.500000000000004 17.500000000000004 1.0000000180025095e-35 16.500000000000004 716.50000000000011 2.5000000000000004
decision_type=8 2 2 2 2 2 2 2 2 2 2 2 2 10 2 2 2 2 2 2 2 2 2 2 2 2 2 2 2 10 2 10 2 2 2 10 2 2 2 2 2 2 2 2 2 2 2 2 10
left_child=1 4 8 9 6 32 34 -6 21 12 17 16 -2 14 29 -9 37 -7 19 -17 -13 -3 30 -10 -19 -14 -23 -27 45 -11 -18 -32 48 -25 -1 38 -37 -4 40 -40 -21 -26 -8 -41 -12 47 -47 -22 -5
right_child=3 2 11 5 7 10 42 15 23 13 44 20 25 -15 -16 18 22 24 -20 35 28 26 -24 33 41 27 -28 -29 -30 -31 31 -33 -34 -35 -36 36 -38 -39 39 43 -42 -43 -44 -45 -46 46 -48 -49 -50
leaf_value=-0.037196117238531341 -0.03877776041841164 0.085358984902376506 -0.016845435133098035 0.03233756251482809 -0.049810202694010007 0.10714565062923274 0.10987445631165174 0.095991826570662422 0.030985826355918997 -0.020410124511395067 -0.036087465371588932 -0.044690936526102558 0.14891250730124289 -0.064629229130703 -0.051761922627919357 0.094997004085273284 0.12262809945682396 0.087627012159229481 -0.025809067202727694 -0.029109412675812043 -0.024922579573800431 0.14932960067878706 0.016352930729528554 0.10267303901379093 0.0060621060455892549 0.15846149300533796 0.13108017985295914 -0.0082159107335968411 0.00079970294042640765 0.11375981423819902 0.075039204647997793 0.041367426241329226 0.05910403634335603 0.05174737908075841 0.025547432251500315 0.030825546533159071 -0.0098058574699734103 0.085642312750644961 0.10259591556578025 0.080853374109067122 0.017854875975448471 0.12130002899767311 0.14407887122869417 0.022265036269363922 -1.4151833894438595e-05 0.029970626291484889 0.090372768090242583 0.028241922042727033 0.14454150025961657
leaf_weight=69.558931559324265 83.828387171030045 70.033261105418205 73.162149131298065 6.8764703869819632 348.77732522785664 44.211921647191048 117.69028379023075 61.440934836864471 43.787127211689949 8.9613294005393964 425.83501656353474 58.204423353075981 31.817033231258392 6915.0564125180244 554.41221734881401 56.576857969164848 38.328788012266159 40.72126667201519 131.29704959690571 59.83527110517025 39.393366307020187 987.42351895570755 86.037212491035461 571.51348775625229 143.68276955187321 7.4650724083185223 922.6016865670681 18.894500255584717 290.41009342670441 52.473243743181229 406.38253526389599 239.99067591130733 22.587326481938362 52.063948914408684 56.045034572482109 93.094747960567474 297.80381795763969 12.484425246715544 25.994671851396561 30.021674901247025 213.96734204888344 7.8676222562789908 296.56279115378857 275.30375650525093 83.517977073788643 83.081068202853203 47.081017434597015 190.1944662630558 150.59145380556583
leaf_count=395 471 302 396 34 1056 183 477 262 215 49 2364 332 118 4192 2767 247 159 177 711 324 214 3593 435 2344 745 27 3526 102 1527 209 1815 1127 98 245 279 454 1595 56 111 138 1089 31 1092 1378 443 401 208 937 550
internal_value=0 0.709869 0.931173 -0.522427 0.273046 0.19534 1.0096 0.0236065 1.27329 -0.60904 -0.0702262 0.352336 0.177104 -0.623864 -0.372024 0.16972 0.541419 0.428392 0.128711 0.176959 0.123743 1.38564 0.603701 0.939966 0.280522 0.991059 1.40515 0.389874 0.17483 0.941887 0.659011 0.625373 1.29538 0.984211 -0.0919967 0.13305 -0.00129254 -0.0190613 0.219832 0.338765 0.0759157 0.120446 1.34361 0.280258 -0.301726 0.309507 0.518187 0.191198 1.39642
internal_weight=0 6346.14 4212.17 8598.8 2133.97 925.892 539.857 1594.11 2647.42 7672.91 745.837 1564.75 142.005 7530.9 615.847 1245.34 856.386 236.484 1183.9 1052.6 708.364 1980.06 770.739 667.365 192.272 58.1766 1910.03 26.3596 650.16 61.4346 684.702 646.373 180.055 623.577 125.604 996.021 390.899 85.6466 605.123 331.32 273.803 151.55 414.253 305.325 509.353 359.75 130.162 229.588 157.468
internal_count=40000 27440 17832 12560 9608 4625 2243 7365 10225 7935 3943 7607 718 7217 3025 6309 3988 1136 6047 5336 3619 7421 3536 2804 953 247 7119 129 3287 258 3101 2942 682 2589 674 5089 2049 452 3040 1627 1413 776 1569 1516 2807 1760 609 1151 584
shrinkage=0.1


Tree=8
num_leaves=50
num_cat=0
split_feature=6 13 8 8 17 6 13 6 23 6 11 17 17 16 7 6 26 0 15 6 26 13 1 9 7 9 6 20 25 6 25 9 26 15 16 0 24 23 6 3 2 15 6 26 23 11 15 2 26
split_gain=6981.5 4172.36 846.749 248.404 124.889 101.149 99.0323 34.885 33.265 32.1019 23.2209 21.5946 19.1747 18.5932 10.2219 8.67626 7.57634 7.18943 6.32081 5.72337 9.78668 12.8933 7.92067 4.17915 6.20972 2.89687 2.47031 2.45569 9.3953 1.45058 1.1799 0.554067 1.24181 0.476439 0.466011 0.333389 0.143302 0.425208 0.105752 0.102722 0.0643596 0.0356067 0.0702562 0.0308516 0.0295534 0.0108071 0.030372 0.0122836 0.00625229
threshold=36.500000000000007 3.5000000000000004 12.500000000000002 6.5000000000000009 1.0000000180025095e-35 39.500000000000007 3.5000000000000004 44.500000000000007 16.500000000000004 37.500000000000007 28.500000000000004 -1.0000000180025095e-35 1.0000000180025095e-35 10.500000000000002 18.500000000000004 34.500000000000007 34.500000000000007 22.500000000000004 5.5000000000000009 42.500000000000007 10.500000000000002 3.5000000000000004 31.500000000000004 101.50000000000001 72.500000000000014 1862.5000000000002 8.5000000000000018 1.0000000180025095e-35 5.5000000000000009 1.5000000000000002 30.500000000000004 178.50000000000003 -3.4999999999999996 1.5000000000000002 49.500000000000007 15.500000000000002 22.500000000000004 22.500000000000004 5.5000000000000009 1.0000000180025095e-35 21.500000000000004 3.5000000000000004 30.500000000000004 -3.4999999999999996 2.5000000000000004 19.500000000000004 7.5000000000000009 2.5000000000000004 -20.499999999999996
decision_type=2 10 2 2 2 2 10 2 2 2 2 2 2 2 2 2 2 2 2 2 2 10 2 2 2 2 2 2 2 2 2 2 2 2 2 2 2 2 2 2 2 2 2 2 2 2 2 2 2
left_child=1 2 12 7 11 6 14 -2 9 -8 27 -3 26 -11 -5 29 19 -9 -17 20 22 -22 23 24 -7 -20 -1 28 -4 -13 31 32 -31 35 40 -33 38 -38 39 44 -28 42 43 -40 -35 47 -47 -43 -25
right_child=3 4 10 5 -6 16 8 17 -10 13 -12 15 -14 -15 -16 18 -18 -19 25 -21 21 -23 -24 48 -26 -27 34 -29 -30 30 -32 33 -34 36 -36 -37 37 -39 41 -41 -42 45 -44 -45 -46 46 -48 -49 -50
leaf_value=0.10324172985610086 0.13848769772481825 -0.064255795238654809 0.064716834078265853 0.053146495115548156 -0.064049967978986544 -0.064782940667611075 0.072325855385699342 -0.0647751351007229 0.10223212092019401 0.038796525903845303 0.065068793316250567 0.11788634971509659 -0.064228469663551474 -0.064038065987510884 -0.063859684167725236 0.087171263191340262 0.01920482217480125 0.06206989419076836 0.11496540421945432 -0.063807667698165635 -0.06526776996355306 0.035485050506881929 0.029571548617072771 -0.067403252191018767 0.053102737119152026 0.14156186665159914 0.14325789118353763 -0.06386259873359286 -0.064272565519172861 0.11619653528202872 0.12516826219288782 0.13908970584719457 0.13869655952543705 0.13900860672517121 0.13162922326145543 0.12923214720934159 0.13303459133682952 0.14172165019239677 0.1394546447999695 0.13672559257254813 0.13924048522764504 0.14044163701193624 0.13736864094797802 0.14132489228079337 0.14131811560785087 0.1389560796398705 0.14168787091682652 0.14142170245156166 -0.063950164479263327
leaf_weight=21.266083881258965 71.077455893158913 5.2396959066390982 7.1968393325805655 7.7583952695131293 30.625919654965401 10.489090472459795 52.950084179639816 11.368052691221239 59.909995347261429 26.826844841241837 14.196781963109968 29.6044100522995 4.8826089203357688 51.022361487150192 198.43599586188793 47.819915056228638 11.160544142127035 7.3621269911527625 80.51249985396862 7693.9543914198875 23.276382684707642 27.956339597702026 10.043908432126043 5.3525620996952048 7.7846630662679663 83.346779942512512 99.99063429236412 1718.8874688148499 26.218231588602066 29.871376752853394 52.179332315921783 79.494207829236984 137.16874615848064 88.344437286257744 64.266953200101852 60.360972598195076 90.871683940291405 148.29612636566162 119.01190753281116 107.12557379901409 66.329641506075859 135.96069772541523 66.738363936543465 340.70724387466908 148.61575742065907 70.667862996459007 95.966918468475342 2152.6262329369783 257.41833204030991
leaf_count=22 24 26 20 20 154 32 31 46 27 20 30 20 28 56 1052 26 22 20 28 26895 117 20 24 20 20 20 26 8979 150 26 27 22 39 24 31 28 25 34 33 35 21 34 21 79 36 20 22 497 971
internal_value=0 0.803328 -0.37646 -0.589404 1.3715 -0.606998 -0.114182 1.06494 0.405214 0.12256 -0.623087 1.38628 1.32048 -0.286013 -0.594571 1.38883 -0.631304 -0.149171 1.19159 -0.632448 -0.505928 -0.102896 -0.576864 -0.608048 -0.145634 1.28494 1.35854 -0.633406 -0.364912 1.39939 1.40105 1.40307 1.34673 1.40561 1.38861 1.34835 1.40785 1.38421 1.40955 1.39295 1.41656 1.41147 1.40401 1.40841 1.40457 1.41307 1.40529 1.41363 -0.640205
internal_weight=0 6224.39 2023.24 8534.15 4201.16 8444.34 396.904 89.8076 190.709 130.799 1766.5 4170.53 256.736 77.8492 206.194 4165.29 8047.44 18.7302 211.679 8036.28 342.321 51.2327 291.089 281.045 18.2738 163.859 251.853 1752.3 33.4151 3953.61 3924.01 3871.83 167.04 3704.79 230.587 139.855 3564.93 239.168 3325.76 344.086 166.32 2981.68 526.458 459.719 236.96 2455.22 166.635 2288.59 262.771
internal_count=40000 10583 9307 29417 1276 29327 1206 90 134 107 9179 1122 128 76 1072 1096 28121 66 74 28099 1204 137 1067 1043 52 48 100 9149 170 1022 1002 975 65 910 78 50 860 59 801 95 47 706 133 112 60 573 42 531 991
shrinkage=0.1


Tree=9
num_leaves=50
num_cat=0
split_feature=13 13 17 17 15 7 17 17 17 8 17 15 15 21 17 6 8 8 13 8 17 24 15 8 6 8 17 17 15 16 17 8 15 13 9 17 6 6 15 17 24 13 15 8 9 25 17 17 17
split_gain=4545.94 452.832 323.984 646.836 245.925 219.263 227.874 177.424 172.692 137.852 63.8564 34.4659 32.9302 29.4234 28.0841 25.6203 24.3211 22.8178 22.6935 21.2202 20.9116 19.903 17.0942 16.9851 16.0202 15.4977 12.9251 12.352 12.3512 23.8562 12.1677 12.1051 10.813 14.4534 10.792 10.3546 9.81372 9.52468 8.86197 8.51805 7.74208 7.69465 10.0044 7.63975 7.50657 7.29879 7.18967 7.17749 12.9295
threshold=3.5000000000000004 2.5000000000000004 7.5000000000000009 1.0000000180025095e-35 2.5000000000000004 8.5000000000000018 -1.0000000180025095e-35 4.5000000000000009 -4.4999999999999991 12.500000000000002 3.5000000000000004 2.5000000000000004 1.5000000000000002 1.0000000180025095e-35 11.500000000000002 51.500000000000007 99.500000000000014 26.500000000000004 2.5000000000000004 120.50000000000001 2.5000000000000004 20.500000000000004 10.500000000000002 140.50000000000003 40.500000000000007 127.50000000000001 -4.4999999999999991 5.5000000000000009 10.500000000000002 -1.0000000180025095e-35 -2.4999999999999996 93.500000000000014 4.5000000000000009 1.5000000000000002 596.50000000000011 10.500000000000002 91.500000000000014 44.500000000000007 10.500000000000002 18.500000000000004 22.500000000000004 1.5000000000000002 4.5000000000000009 93.500000000000014 291.50000000000006 27.500000000000004 -5.4999999999999991 1.0000000180025095e-35 5.5000000000000009
decision_type=10 8 2 2 2 2 2 2 2 2 2 2 2 2 2 2 2 2 10 2 2 2 2 2 2 2 2 2 2 2 2 2 2 10 2 2 2 2 2 2 2 10 2 2 2 2 2 2 2
left_child=1 2 3 5 12 15 8 16 46 24 26 -8 18 -11 25 -1 -5 -14 -3 -9 -18 36 27 40 -6 -4 -2 -21 29 -25 43 -16 -27 -34 -12 -20 47 -36 -22 -33 -13 -29 -43 -10 45 -23 -7 -15 -49
right_child=10 4 14 7 9 6 11 19 30 13 34 23 17 21 31 -17 20 -19 35 22 38 44 -24 28 -26 32 -28 41 -30 -31 -32 39 33 -35 37 -37 -38 -39 -40 -41 -42 42 -44 -45 -46 -47 -48 48 -50
leaf_value=-0.054485092500598936 0.1109092627251998 0.098742932046450196 0.10689089801706864 0.028908853608024938 -0.052162475896635044 0.11867666841923884 0.025252067496152338 0.077109541323630418 0.12107850947832753 0.015659792416856857 0.11667766305700895 0.12622007172062152 -0.039612596075950211 0.13410746541247195 0.13108248140778914 0.10711276260465306 -0.041468226152300003 0.069261654422340849 -0.025978605211053753 0.0016377803227796001 -0.021770920541749755 0.031835370058639026 0.066645782711850829 0.022508559675301888 0.14551231481164445 0.0078314163604022973 -0.062109982658752942 0.017405538018415528 0.11671242788406107 0.089760449422859906 -0.035267105611942622 0.078885979464765998 0.047747551387161476 0.081119739555936321 0.072968886493368953 0.055519696785099937 0.069028371131278687 -0.04283614134706918 0.018670323229045726 0.10092656933627984 0.065539016249218318 3.5135170982691603e-05 0.056843679801617281 -0.0012238172882155236 0.10030427155450422 0.13612103772025425 0.066415049649795652 0.094022300162566311 0.12699471723342223
leaf_weight=161.27036117017269 4.3204427659511557 18.253220200538635 73.460061803460121 72.468994110822678 54.895802706480026 110.39788091182709 75.575732871890068 77.869196400046349 5.3735939115285865 27.447332367300987 17.882317051291466 200.69058200716972 22.46448227763176 570.79254715144634 71.147531077265739 10.446499228477476 827.15329970419407 134.51472622156143 164.09987533092499 289.58121107518673 749.07127957046032 35.190603137016296 79.092224955558777 55.394404456019402 4.4307359606027594 39.814533278346062 6597.9907142668962 267.10711771249771 153.72644577920437 1103.3515263497829 249.98207427561283 430.58402493596077 306.87017890810966 224.88260963559151 14.840339779853823 17.226091042160988 31.025102436542511 13.620881572365759 58.410523012280464 295.80440798401833 23.486350178718567 39.879571363329887 139.23063246905804 103.15016184747219 118.44547678530216 8.2927385717630369 34.565276429057121 159.48781387507915 467.62095259130001
leaf_count=85 20 83 335 320 31 510 317 350 26 103 85 921 20 2658 332 49 3584 598 712 1253 3258 150 353 239 21 168 4323 1155 706 4980 1085 1941 1351 1021 65 77 136 24 259 1346 89 168 638 449 523 40 152 724 2167
internal_value=0 0.502049 0.375272 0.252358 0.939562 0.640211 0.728415 -0.0888823 0.141132 1.11943 -0.611757 0.911814 0.194148 1.1819 0.791691 -0.446542 -0.277798 0.536812 -0.0753747 0.272356 -0.30293 1.20214 0.224697 0.944239 -0.373994 0.636543 -0.619968 0.177212 0.900788 0.865454 -0.231286 0.917172 0.580973 0.618609 0.557982 -0.182362 1.24556 0.175473 -0.188455 0.878615 1.19863 0.281588 0.44195 0.0483203 0.872588 0.517238 1.06215 1.25994 1.18609
internal_weight=0 8164.03 6329.84 4887.27 1834.19 2287.41 2115.69 2599.86 503.469 1477.63 6648.65 1612.23 356.558 1418.3 1442.56 171.717 1707.1 156.979 199.579 892.76 1634.64 1390.86 814.891 1536.65 59.3265 645.027 6602.31 735.799 1312.47 1158.75 358.506 797.536 571.567 531.753 46.3435 181.326 1228.93 28.4612 807.482 726.388 224.177 446.217 179.11 108.524 161.929 43.4833 144.963 1197.9 627.109
internal_count=40000 35483 27440 20946 8043 9608 9474 11338 2222 6553 4517 7252 1490 6501 6494 134 7421 618 872 3917 7101 6398 3567 6935 52 2875 4343 3214 5925 5219 1560 3619 2540 2372 174 789 5685 89 3517 3287 1010 1961 806 475 713 190 662 5549 2891
shrinkage=0.1


Tree=10
num_leaves=50
num_cat=0
split_feature=13 6 6 6 23 17 9 6 22 6 8 17 22 24 7 9 9 26 25 6 9 26 15 6 25 1 16 16 2 4 4 15 26 9 22 8 0 0 6 4 6 26 6 15 6 8 23 9 8
split_gain=5284.08 7282.32 69.3407 47.2877 45.7452 37.864 26.0738 22.6139 13.6337 12.9267 12.5935 10.8868 10.9159 11.6614 8.10986 4.20854 2.58033 6.94957 1.83394 0.614343 0.218307 0.431298 0.215417 0.367175 0.760084 0.193225 0.665707 4.56077 0.164908 0.34 0.16475 0.162491 0.063638 0.0632144 0.246523 0.0631002 0.0542466 0.0271866 0.0247626 0.0461378 0.0195214 0.0153648 0.00953516 0.00928419 0.00890913 0.03206 0.00887968 0.0573665 0.0119718
threshold=3.5000000000000004 37.500000000000007 42.500000000000007 34.500000000000007 16.500000000000004 1.0000000180025095e-35 337.50000000000006 39.500000000000007 2.5000000000000004 54.500000000000007 181.50000000000003 1.0000000180025095e-35 9.5000000000000018 8.5000000000000018 604.50000000000011 838.50000000000011 101.50000000000001 -1.0000000180025095e-35 8.5000000000000018 33.500000000000007 154.50000000000003 -1.4999999999999998 1.5000000000000002 56.500000000000007 8.5000000000000018 1.5000000000000002 5.5000000000000009 4.5000000000000009 1.5000000000000002 19.500000000000004 25.500000000000004 18.500000000000004 1.0000000180025095e-35 235.50000000000003 24.500000000000004 26.500000000000004 7.5000000000000009 23.500000000000004 43.500000000000007 17.500000000000004 39.500000000000007 5.5000000000000009 60.500000000000007 27.500000000000004 67.500000000000014 1707.5000000000002 10.500000000000002 442.50000000000006 99.500000000000014
decision_type=10 2 2 2 2 2 2 2 2 2 2 2 2 2 2 2 2 2 2 2 2 2 2 2 2 2 2 2 2 2 2 2 2 2 2 2 2 2 2 2 2 2 2 2 2 2 2 2 2
left_child=25 3 4 19 11 16 -5 -6 -8 -7 -11 12 30 -14 18 -15 17 -4 -10 31 21 -18 23 24 32 26 27 -1 29 -24 40 -2 -22 34 37 -35 -25 -30 39 -37 -3 -23 -38 44 45 46 47 -40 -49
right_child=1 2 5 6 7 9 8 -9 14 10 -12 -13 13 15 -16 -17 20 -19 -20 -21 22 41 28 36 -26 -27 -28 -29 33 -31 -32 -33 -34 35 -36 38 42 -39 43 -41 -42 -43 -44 -45 -46 -47 -48 48 -50
leaf_value=-0.063966741658936982 -0.063737969088880381 0.14400174271566843 0.055765599759155175 0.080762793598038563 -0.021546634460017311 -0.064401735553744455 0.023624388488637606 0.084289874204775891 -0.039775721376529273 -0.068052339870308065 0.12255073069522654 -0.017186979572432589 0.047022640033399066 0.13933544008280896 -0.0033296021704839925 0.095611904959473693 0.12639578624408956 0.13814393303806913 -0.064313628030795753 -0.053933552286520338 0.14165971071985728 0.14186206606977733 0.12725901400442718 0.13734772729268147 0.11696964889565685 -0.063856776588505582 -0.063912026645002382 0.017367143611056107 0.14262711519493404 0.14080041440828187 0.13305064267010755 -0.058722913057192495 0.13501020170812014 0.13661299127805251 0.12950542283319694 0.13613543133149617 0.13956044712846938 0.13883478534853078 0.13656624319008878 0.141806845502715 0.14089900398442076 0.1389224539055034 0.14144881484919622 0.13961294433547053 0.14142241273136516 0.13776067548388404 0.14151381036639463 0.13949391343772119 0.14118526773369619
leaf_weight=42.637788757681847 2828.9907694607973 35.131914258003235 13.222640633583067 24.603543430566788 44.350740700960159 10.291279256343843 40.937669783830643 37.05695116519928 53.577627316117287 4.6093266308307674 13.980909541249273 6.2103523761034003 34.274984359741211 40.742205008864403 42.986928701400757 47.890652641654015 31.513298913836479 45.410650432109833 70.587267816066742 66.942351043224335 30.789113521575928 36.922653317451477 26.487082868814468 48.738545939326286 22.736424461007118 6720.0692685693502 163.81419666111469 8.2241963744163495 52.174118876457214 61.812377139925957 25.709066465497017 66.116557985544205 27.025961428880692 29.987334042787552 22.852172151207924 26.866909965872765 32.641491085290909 29.643981471657753 28.364390850067139 30.774558544158936 47.959409117698669 34.29648645222187 147.88801324367523 34.185594707727432 1816.4026314020157 28.219871580600739 495.93439769744873 43.534538835287094 1081.1874272525311
leaf_count=219 1131 23 36 22 20 51 27 30 25 25 20 21 24 33 25 30 30 33 28 35 20 24 26 35 24 34373 859 32 34 41 21 22 20 23 20 20 22 21 21 20 33 24 96 23 1179 20 322 30 707
internal_value=0 0.561318 1.36298 -0.599945 0.913352 1.3963 -0.165874 0.266304 -0.280976 0.255152 0.75292 1.13475 1.16977 0.965557 -0.40765 1.1571 1.404 1.19566 -0.537254 -0.634044 1.4069 1.36136 1.40803 1.38268 1.3246 -0.637624 -0.608091 -0.508154 1.4101 1.36738 1.40046 -0.636234 1.38551 1.41111 1.38688 1.41181 1.40308 1.41253 1.41219 1.39163 1.42211 1.40446 1.41107 1.41253 1.41269 1.41103 1.4116 1.41008 1.4112
internal_weight=0 7822.56 4627.82 3194.74 319.326 4308.49 232.693 81.4077 208.089 28.8815 18.5902 237.919 231.708 122.908 167.152 88.6329 4279.61 58.6333 124.165 2962.05 4220.98 102.732 4118.25 309.82 80.5515 6934.75 214.676 50.862 3808.43 88.2995 108.8 2895.11 57.8151 3720.13 104.67 3615.46 229.268 81.8181 3585.47 57.6415 83.0913 71.2191 180.53 3527.83 3493.64 1677.24 1649.02 1153.09 1124.72
internal_count=40000 4517 3202 1315 235 2967 127 50 105 96 45 185 164 87 78 63 2871 69 53 1188 2802 78 2724 217 64 35483 1110 251 2507 67 77 1153 40 2440 75 2365 153 55 2342 40 56 48 118 2302 2279 1100 1080 758 737
shrinkage=0.1


Tree=11
num_leaves=50
num_cat=0
split_feature=13 17 17 17 17 15 17 8 13 15 17 17 17 15 17 8 9 17 17 15 16 8 15 15 8 17 8 13 17 17 15 9 17 15 13 13 15 26 24 15 9 15 26 9 9 8 6 15 26
split_gain=4778.66 499.163 473.857 625.378 314.36 221.25 151.191 108.532 86.4737 132.026 71.2224 54.5245 48.0078 32.3753 30.6267 24.0409 20.3349 20.0603 31.0781 19.1584 28.5372 18.1536 15.3167 15.1688 14.6981 14.3913 14.0219 12.2702 12.2231 11.3407 11.1345 16.1702 10.7903 10.4572 16.0778 9.83677 9.99778 9.78013 9.71892 9.13361 8.79497 8.70474 8.61853 10.9879 9.32891 8.425 8.22283 7.78934 7.59699
threshold=2.5000000000000004 1.0000000180025095e-35 1.0000000180025095e-35 6.5000000000000009 -1.0000000180025095e-35 2.5000000000000004 -4.4999999999999991 120.50000000000001 3.5000000000000004 1.5000000000000002 4.5000000000000009 11.500000000000002 5.5000000000000009 2.5000000000000004 4.5000000000000009 127.50000000000001 396.50000000000006 -1.0000000180025095e-35 -5.4999999999999991 10.500000000000002 -1.0000000180025095e-35 93.500000000000014 1.5000000000000002 10.500000000000002 93.500000000000014 -1.0000000180025095e-35 114.50000000000001 2.5000000000000004 17.500000000000004 2.5000000000000004 3.5000000000000004 205.50000000000003 -6.4999999999999991 4.5000000000000009 1.5000000000000002 1.5000000000000002 5.5000000000000009 8.5000000000000018 17.500000000000004 10.500000000000002 291.50000000000006 1.5000000000000002 -1.4999999999999998 701.50000000000011 687.50000000000011 22.500000000000004 90.500000000000014 10.500000000000002 1.0000000180025095e-35
decision_type=8 2 2 2 2 2 2 2 10 2 2 2 2 2 2 2 2 2 2 2 2 2 2 2 2 2 2 10 2 2 2 2 2 2 10 10 2 2 2 2 2 2 2 2 2 2 2 2 2
left_child=2 8 4 10 6 14 32 45 9 27 24 15 16 -9 -3 37 -7 18 -11 20 -15 -13 -16 33 -4 41 -12 -2 48 -26 -20 -32 -1 -17 -35 42 -37 -5 -14 -28 -40 -10 44 -44 -22 -6 -18 -8 -23
right_child=1 5 3 11 7 12 47 13 25 17 26 21 38 19 22 23 46 -19 30 -21 35 28 -24 -25 29 -27 39 -29 -30 -31 31 -33 -34 34 -36 36 -38 -39 40 -41 -42 -43 43 -45 -46 -47 -48 -49 -50
leaf_value=-0.035417358583988028 -0.019306432934366638 0.11867962209592274 0.075849528359565169 -0.015861583851460439 -0.062244716619636056 0.091870629359224618 0.11994216392814588 0.084773996768831919 0.14195624670225324 -0.059545156187333317 0.028760697616866157 -0.042829190613687534 -0.037425407168511379 0.083742207022656071 0.084679047638710286 0.099493313467310995 0.0063298585006007629 -0.050097254764664922 0.12007620838153373 -0.024247694657544509 -0.027920838001109241 0.017661994633424917 0.0066353261141597238 0.014951552547546371 0.12852919519409772 -0.063217379344844629 0.090256571209966704 0.10538075326034724 0.001093380526833856 0.1136531970741373 0.13322723251031054 -0.011148068262078476 0.023726995753948332 0.067034345311833818 0.034111570234408917 0.028465983399623036 -0.0088798440911726645 0.078470811974485424 0.053776864968061271 0.047183654717875216 -0.020398200899131753 -0.039797309090932778 0.074012102828494949 0.023624888321246349 0.017005427735625696 -0.030333795989204444 0.10872722076133323 0.066741064648257173 0.047585532980017269
leaf_weight=67.44590650498867 8.8338656276464445 175.0547874122858 73.478416204452515 72.278319373726845 186.44760423898697 40.088063791394234 414.52657043933868 64.855463653802872 5.4252152293920499 53.049000933766365 44.514136642217636 56.091183722019196 383.44160361588001 59.799465402960777 56.062139943242073 58.992330148816109 144.91152556240559 532.52780400216579 15.005743026733397 128.49862411618233 58.840012848377228 232.2938269674778 45.602643519639969 87.056364625692368 1064.5666711330414 6558.3254663944244 604.94531404972076 74.054557010531425 289.56045190989971 988.15701429545879 9.9489993304014188 35.220375716686249 56.844953551888466 424.4316581338644 228.02171091735363 94.724611416459084 294.69896526634693 12.961578771471975 22.713621154427528 53.591784134507179 53.962595656514168 5.1236298084259033 50.974860295653343 286.65986780822277 215.4989826977253 148.73680220544338 8.2909973263740522 29.477760046720505 133.66140446066856
leaf_count=395 49 624 302 396 209 158 1455 262 20 321 215 332 2208 247 215 235 750 2767 58 711 324 1151 231 435 3593 4192 2344 273 1527 3526 36 196 279 1815 1051 454 1595 56 111 245 297 23 221 1406 1089 847 31 114 609
internal_value=0 -0.506106 0.637028 0.824405 0.25285 0.183816 0.891202 0.0246536 -0.594042 -0.267196 1.10671 0.323745 -0.133578 0.15971 0.933267 0.489637 0.284631 -0.419702 -0.0374602 0.122202 0.166361 0.117725 0.496718 0.543526 1.19795 -0.630297 0.830796 0.920922 0.164446 1.21368 0.454452 0.20652 -0.0836744 0.591739 0.555284 0.126288 0.00204272 -0.015174 -0.309263 0.867513 0.0157451 0.536776 0.20535 0.312322 0.0736968 -0.480844 0.118714 1.1641 0.285913
internal_weight=0 8227.64 6582.63 4424.6 2158.03 930.128 568.295 1589.74 7297.51 728.64 2829.25 1595.35 653.408 1254.55 276.72 883.742 193.291 645.752 113.224 1189.7 1061.2 711.607 101.665 798.502 2126.2 6568.87 703.051 82.8884 655.516 2052.72 60.1751 45.1694 124.291 711.446 652.453 1001.4 389.424 85.2399 460.118 658.537 76.6762 10.5488 611.974 337.635 274.339 335.184 153.203 444.004 365.955
internal_count=40000 12560 27440 17832 9608 4625 2243 7365 7935 3700 10225 7607 3555 6309 1070 3988 939 3378 611 6047 5336 3619 446 3536 7421 4235 2804 322 3287 7119 290 232 674 3101 2866 5089 2049 452 2616 2589 408 43 3040 1627 1413 1056 781 1569 1760
shrinkage=0.1


Tree=12
num_leaves=50
num_cat=0
split_feature=6 13 8 8 17 6 23 13 6 6 11 16 0 17 17 8 26 6 6 26 24 26 7 15 6 9 7 9 20 6 6 6 25 9 26 15 16 1 22 8 2 6 3 23 7 15 4 26 21
split_gain=6058.67 3416.51 748.889 208.183 100.803 47.3837 42.2765 35.0152 28.2635 22.6266 20.4849 18.674 25.9262 17.1043 16.0064 8.96569 7.39873 6.61161 5.72533 9.51749 12.0895 7.74484 7.56611 5.18948 4.47006 4.22554 5.52457 2.50126 2.35731 8.737 1.95644 1.24844 1.0188 0.484648 1.85112 0.408934 0.336983 0.291238 0.133528 0.330937 0.0952086 0.0927647 0.0694858 0.0592078 0.0366509 0.0229497 0.0637821 0.0190116 0.0104415
threshold=37.500000000000007 3.5000000000000004 12.500000000000002 6.5000000000000009 1.0000000180025095e-35 39.500000000000007 15.500000000000002 3.5000000000000004 52.500000000000007 36.500000000000007 28.500000000000004 6.5000000000000009 20.500000000000004 -1.0000000180025095e-35 1.0000000180025095e-35 60.500000000000007 34.500000000000007 34.500000000000007 42.500000000000007 10.500000000000002 15.500000000000002 -20.499999999999996 721.50000000000011 5.5000000000000009 44.500000000000007 101.50000000000001 72.500000000000014 1862.5000000000002 1.0000000180025095e-35 3.5000000000000004 8.5000000000000018 1.5000000000000002 30.500000000000004 120.50000000000001 -3.4999999999999996 1.5000000000000002 49.500000000000007 11.500000000000002 22.500000000000004 872.50000000000011 22.500000000000004 5.5000000000000009 1.0000000180025095e-35 12.500000000000002 379.50000000000006 3.5000000000000004 4.5000000000000009 -3.4999999999999996 2.5000000000000004
decision_type=2 10 2 2 2 2 2 10 2 2 2 2 2 2 2 2 2 2 2 2 2 2 2 2 2 2 2 2 2 2 2 2 2 2 2 2 2 2 2 2 2 2 2 2 2 2 2 2 2
left_child=1 2 14 8 9 6 11 15 24 13 28 12 -5 -3 30 -8 18 31 19 21 -21 -7 -22 -19 -2 26 -23 -25 29 -4 -1 -15 33 34 -33 37 40 -35 41 43 -32 42 44 -40 -37 46 -43 -48 -47
right_child=3 4 10 5 -6 16 7 -9 -10 -11 -12 -13 -14 17 -16 -17 -18 23 -20 20 22 25 -24 27 -26 -27 -28 -29 -30 -31 36 32 -34 35 -36 38 -38 -39 39 -41 -42 45 -44 -45 -46 48 47 -49 -50
leaf_value=0.091432152100075173 0.12213932990417704 -0.063096588650318641 0.05956074420314731 -0.065949761633801451 -0.063120811819847397 0.031678982359554346 0.061749676752638184 0.091205880957920329 -0.063980237052772365 0.064135947048739372 0.053699046692202913 -0.062865337930679541 0.11297473500217153 0.1032343457766996 -0.063405597604172373 -0.062696107188985259 0.019629864055427534 0.077109747460448116 -0.062582355561452904 0.071825624909802779 -0.063677642535055368 -0.063446473968145484 0.043396783862825104 0.10143933414636015 0.045013341411602209 -0.06281205774882033 0.049627571254143105 0.1255490561007839 -0.062672720022224335 -0.063296465105713115 0.12643943530900226 0.086930607337468532 0.10979931777763388 0.11307252821564795 0.12211219479851149 0.12223252076342339 0.11641195585292928 0.12216208421261049 0.12152762198441323 0.11685848464402873 0.12165755266757877 0.12097543105732363 0.12036263964308702 0.1248803617908934 0.12475236177203407 0.12406749092640901 0.12302140137762295 0.12446965238705346 0.12452388746952898
leaf_weight=22.173680275678635 70.153931856155396 4.9828101247549048 7.4558679908514014 16.60260696709156 29.875583082437515 9.6502609401941282 7.2565905153751364 51.368181496858597 10.081057935953138 68.461221903562546 15.39893066883087 140.73777192831039 15.810326248407362 31.14208310842514 4.8500474989414206 28.63049441576004 11.119575321674345 49.985924169421196 7287.4286634325981 13.509446337819098 28.324670746922493 9.474052622914316 8.6039925366640073 84.545641258358955 8.4162380844354612 250.7646889090538 7.9439164847135535 87.630620718002319 1689.2616326510906 25.882729038596153 114.42630782723427 17.162780448794365 54.892243385314941 58.582589685916901 116.2919494509697 116.20766021311283 67.466225564479828 88.506323158740997 74.641955107450485 90.812504053115845 65.453951135277748 74.75326481461525 103.17974472045898 178.94970715045929 114.68863916397095 685.69243544340134 120.33147460222244 367.37974798679352 1863.8708577007055
leaf_count=22 23 26 20 44 158 25 20 21 46 35 35 571 20 20 29 159 22 26 26895 23 94 29 20 28 20 993 20 20 9298 156 28 20 27 25 31 31 31 25 22 24 21 22 32 40 25 158 31 81 408
internal_value=0 0.71358 -0.368885 -0.587364 1.19953 -0.604492 -0.185024 0.382573 0.936525 1.21182 -0.611266 -0.471052 0.213257 1.22072 1.16648 -0.375324 -0.618814 1.22283 -0.620004 -0.490818 -0.0911886 -0.563367 -0.387304 1.05475 1.13878 -0.595039 -0.118761 1.1371 -0.62153 -0.358206 1.19888 1.23181 1.23332 1.23514 1.17588 1.23715 1.22439 1.18542 1.23916 1.22039 1.24699 1.24104 1.2252 1.23894 1.23484 1.24274 1.23695 1.24112 1.24401
internal_weight=0 6494.94 2012.37 7975.88 4482.57 7887.23 260.406 87.2553 88.6512 4452.69 1738 173.151 32.4129 4384.23 274.37 35.8871 7626.82 4379.25 7615.7 328.271 50.4381 277.833 36.9287 222.162 78.5702 268.183 17.418 172.176 1722.6 33.3386 269.52 4157.09 4125.94 4071.05 133.455 3937.6 247.346 147.089 3790.51 344.404 179.88 3446.1 334.076 253.592 230.896 3112.03 562.464 487.711 2549.56
internal_count=40000 10955 9640 29045 1315 28956 835 200 89 1157 9509 635 64 1122 131 179 28121 1096 28099 1204 137 1067 114 74 43 1042 49 48 9474 176 102 1022 1002 975 51 924 80 50 874 86 49 788 88 62 56 700 134 112 566
shrinkage=0.1


Tree=13
num_leaves=50
num_cat=0
split_feature=13 13 17 17 17 15 8 17 17 8 17 15 15 9 26 8 6 8 17 13 8 15 8 8 17 17 6 13 17 17 24 25 17 15 26 26 9 15 9 24 11 17 17 8 6 26 9 9 6
split_gain=4002.41 357.766 259.16 481.574 210.085 191.166 181.248 179.169 140.159 107.687 59.1052 27.2417 27.2337 24.3771 28.0261 24.3692 22.6868 21.6494 20.0879 19.2272 18.5774 17.7 16.6389 16.007 14.8444 14.0524 13.836 11.9221 11.8417 11.3524 10.1732 9.64852 9.19481 8.85254 10.2089 8.77035 10.5 8.76218 8.17768 8.02072 7.40839 7.74101 9.14406 7.4023 7.32993 7.2361 9.78577 8.31547 7.37082
threshold=3.5000000000000004 2.5000000000000004 8.5000000000000018 1.0000000180025095e-35 4.5000000000000009 2.5000000000000004 12.500000000000002 -1.0000000180025095e-35 -4.4999999999999991 12.500000000000002 3.5000000000000004 1.5000000000000002 3.5000000000000004 120.50000000000001 -1.4999999999999998 120.50000000000001 44.500000000000007 99.500000000000014 3.5000000000000004 2.5000000000000004 26.500000000000004 10.500000000000002 127.50000000000001 146.50000000000003 5.5000000000000009 17.500000000000004 40.500000000000007 1.5000000000000002 -3.4999999999999996 -2.4999999999999996 18.500000000000004 17.500000000000004 9.5000000000000018 10.500000000000002 1.0000000180025095e-35 1.0000000180025095e-35 1470.5000000000002 18.500000000000004 427.50000000000006 24.500000000000004 26.500000000000004 1.0000000180025095e-35 3.5000000000000004 93.500000000000014 2.5000000000000004 -1.4999999999999998 460.50000000000006 687.50000000000011 17.500000000000004
decision_type=10 8 2 2 2 2 2 2 2 2 2 2 2 2 2 2 2 2 2 10 2 2 2 2 2 2 2 10 2 2 2 2 2 2 2 2 2 2 2 2 2 2 2 2 2 2 2 2 2
left_child=1 2 3 6 17 11 16 8 -8 26 28 19 44 14 -11 39 -1 -5 -19 -3 -13 24 -14 -4 -17 33 -7 45 -2 43 37 -12 -21 34 38 -26 -37 -15 -25 -6 41 -32 -43 -10 -9 47 -47 -24 -48
right_child=10 5 23 4 15 9 7 12 29 13 31 20 22 30 -16 21 -18 18 -20 32 -22 -23 27 25 35 -27 -28 -29 -30 -31 40 -33 -34 -35 -36 36 -38 -39 -40 -41 -42 42 -44 -45 -46 46 48 -49 -50
leaf_value=-0.052338427416495859 0.076626123207661642 0.088781654001079652 0.1030845358107234 0.026948702204059063 0.084152937528212277 -0.050440050744305534 0.093563054319230843 -0.0090529462795607037 0.12064432286236793 0.11051304944332661 0.016479199427895101 -0.037658047022285174 0.11195656345694245 0.11249731026823453 -0.018305072579584976 0.0017822720949333762 0.071170100064373132 -0.034799380110427526 -0.0083048166122523092 -0.025177078767203966 0.062007554843122571 0.063442211487332242 0.1133932494752963 0.1117842247415025 0.037981668857329294 0.087739730124992504 0.12951165439189269 0.091795961663815331 -0.060788849250628975 -0.033398881451268382 0.11314295908114436 0.10969080109593006 0.046007705879824994 0.091172868317440828 0.041835970094305557 -0.0082395133586918301 0.035035973799939883 0.071052197194259856 0.063645805093520663 -0.0090438249320633195 0.00051858358712767057 0.010442918694652706 0.086431873711817833 -0.00035435910248512114 0.049267050597416595 0.0074836724416717766 0.023883661752321497 0.075527293659398517 0.07239491216855666
leaf_weight=156.47993223369122 6.2774245589971533 19.022414460778236 174.6825276017189 73.521098211407661 96.529266640543938 52.301680237054825 152.04410853981972 28.155381798744202 5.3190253227949134 33.558702647686005 29.55144014954567 21.597872287034988 199.9033899307251 1158.7961228042841 34.000924110412598 289.16526746749878 16.434299007058144 1214.6083351224661 374.37189219892025 157.68408863246441 139.49707871675491 107.37074463069439 73.551749467849731 38.674936324357986 403.31248489022255 330.48830929398537 4.6527522206306449 585.97110076248646 6240.8163190037012 242.71160370111465 87.528449952602386 17.790500611066818 20.505094930529594 97.890013784170151 228.8131986707449 112.57452845573425 111.69641834497452 53.360155940055847 403.15426529943943 10.211330905556677 9.506009027361868 19.109229803085327 92.441826358437538 102.23827977478504 91.87257482111454 28.517428293824196 34.321623519062996 274.19408543407917 358.2126138061285
leaf_count=86 25 83 768 320 423 31 662 102 25 149 100 20 881 5118 124 1253 59 5424 1677 700 598 463 333 177 1755 1432 21 2546 4318 1086 388 74 89 433 972 460 486 222 1750 39 24 76 400 449 398 115 139 1181 1546
internal_value=0 0.458758 0.34582 0.245813 -0.0348434 0.839478 0.579429 0.657699 0.133879 0.992077 -0.598072 0.181374 0.814815 1.04372 0.456824 0.297671 -0.405998 -0.261025 -0.285571 -0.0678353 0.486455 0.250279 0.850248 0.749656 0.205287 0.704962 -0.357393 0.810508 -0.606508 -0.214144 1.07163 0.515069 -0.169855 0.630811 0.589807 0.291663 0.133135 1.10673 0.678595 0.752373 0.867636 0.908818 0.734146 0.0562938 0.355867 0.72861 0.640442 0.835363 0.681533
internal_weight=0 8320.55 6416.99 5143.29 2793.36 1903.56 2349.93 2177.01 502.313 1545.26 6294.44 358.307 1674.7 1488.3 67.5596 1130.86 172.914 1662.5 1588.98 197.212 161.095 1024.12 1554.67 1273.7 916.749 1099.02 56.9544 1354.77 6247.09 350.269 1420.74 47.3419 178.189 768.532 670.642 627.583 224.271 1212.16 441.829 106.741 208.586 199.08 111.551 107.557 120.028 768.798 421.052 347.746 392.534
internal_count=40000 35483 27440 21908 12300 8043 9608 9463 2222 6553 4517 1490 7241 6501 273 4879 145 7421 7101 872 618 4417 6741 5532 3954 4764 52 5860 4343 1560 6228 174 789 3332 2899 2701 946 5340 1927 462 888 864 476 474 500 3314 1800 1514 1685
shrinkage=0.1


Tree=14
num_leaves=50
num_cat=0
split_feature=13 6 6 6 23 17 9 8 22 6 8 17 2 7 22 15 9 26 25 6 15 1 15 7 16 6 9 6 26 15 6 8 15 2 9 22 8 4 8 6 16 7 2 6 6 8 6 26 6
split_gain=4670.51 5958.62 53.1327 46.2012 35.7149 28.4609 23.1066 20.1725 12.8485 11.3776 10.3171 8.45345 9.16335 7.84744 3.66911 5.06268 2.14759 5.80478 1.8435 0.634865 0.624474 0.19947 0.69286 1.66954 0.19369 1.52094 0.186169 0.392488 1.4466 0.177035 0.264503 0.776391 0.168193 0.160668 0.325793 0.114502 0.098506 0.0748737 0.0533406 0.0471805 0.0221946 0.01279 0.0126544 0.00931271 0.00921497 0.00859366 0.00567455 0.0264581 0.0100474
threshold=3.5000000000000004 37.500000000000007 42.500000000000007 34.500000000000007 16.500000000000004 1.0000000180025095e-35 337.50000000000006 173.50000000000003 2.5000000000000004 54.500000000000007 181.50000000000003 1.0000000180025095e-35 26.500000000000004 604.50000000000011 13.500000000000002 9.5000000000000018 101.50000000000001 -1.0000000180025095e-35 8.5000000000000018 33.500000000000007 4.5000000000000009 1.5000000000000002 14.500000000000002 217.50000000000003 5.5000000000000009 41.500000000000007 263.50000000000006 62.500000000000007 -1.4999999999999998 1.5000000000000002 59.500000000000007 554.50000000000011 18.500000000000004 1.5000000000000002 1800.5000000000002 9.5000000000000018 1379.5000000000002 4.5000000000000009 26.500000000000004 70.500000000000014 42.500000000000007 173.50000000000003 14.500000000000002 43.500000000000007 96.500000000000014 1750.5000000000002 50.500000000000007 -9.4999999999999982 49.500000000000007
decision_type=10 2 2 2 2 2 2 2 2 2 2 2 2 2 2 2 2 2 2 2 2 2 2 2 2 2 2 2 2 2 2 2 2 2 2 2 2 2 2 2 2 2 2 2 2 2 2 2 2
left_child=21 3 4 19 11 16 -5 -6 -8 -7 -11 12 14 18 20 -16 17 -4 -10 32 -3 22 24 -24 25 -1 27 28 -18 30 31 -28 -2 34 -31 42 -33 -32 -35 -29 43 -30 -22 -40 45 46 47 -45 -49
right_child=1 2 5 6 7 9 8 -9 13 10 -12 -13 -14 -15 15 -17 26 -19 -20 -21 35 -23 23 -25 -26 -27 29 39 41 33 37 36 -34 38 -36 -37 -38 -39 40 -41 -42 -43 -44 44 -46 -47 -48 48 -50
leaf_value=-0.0090023048595863093 -0.062466771862642594 0.1066786360350675 0.047894357764571634 0.074624211325602638 -0.029850669916729741 -0.063302709023894316 0.023427384705275795 0.069519531195599837 -0.03820733203524479 -0.066142892870198214 0.1089410348909071 -0.015725293944330778 0.066673465292521258 -0.0023513439458643973 0.12545992181222887 0.070015257765306316 0.094339716985871874 0.12155266840750092 -0.063260543747294992 -0.052244245948328688 0.12588253308232675 -0.062662241500932622 0.013214388988289905 -0.062911093988392661 -0.062703343802074887 -0.062786588412685848 0.10373415923522361 0.12126215302293589 0.12203834196043728 0.11325984513446913 0.11940554250233296 0.12542424892365153 -0.057225469970386703 0.12021044976135715 0.1255867370569764 0.13239195951282609 0.11810225366324512 0.1247062756153839 0.12309630807272121 0.12492659141286178 0.12168510311648012 0.12488288410423219 0.12327699355378428 0.12193169718162358 0.1227895438613712 0.12285994846890246 0.12446046279512624 0.12459840562540497 0.1232476226199188
leaf_weight=6.1390899568796149 2672.6547860205173 18.093271553516388 13.788109838962553 25.37559349834919 37.396952301263809 9.8274331986904162 40.992964386940002 45.025203227996826 51.964518830180168 4.3580694347620037 14.779439896345137 6.1175959408283225 53.325816035270691 42.532938435673714 29.688502728939056 36.985059559345245 23.103685706853867 47.75390362739563 67.551396429538727 63.652798816561699 46.796192646026611 6376.013885602355 4.3685140907764426 8.4605393558740598 148.4700922369957 36.624232530593872 28.97639362514019 47.790991723537445 29.552631929516792 39.539699494838715 31.601016491651535 51.842830806970596 62.660665318369865 31.534356683492661 46.8390132188797 27.107908770442009 28.461113423109055 170.00050413608551 57.158366695046425 132.68398690223694 31.213139250874519 33.983981132507324 30.980058521032333 50.867105886340141 35.949279338121414 35.942489326000214 3151.6199711114168 312.56762540340424 66.841271728277206
leaf_count=26 1131 20 36 22 20 51 27 30 25 25 20 21 29 25 25 21 29 33 28 35 29 34373 20 49 816 199 27 33 20 34 22 33 22 23 29 20 20 105 37 82 21 21 20 34 23 23 1950 193 43
internal_value=0 0.515387 1.20137 -0.585879 0.814929 1.22966 -0.153438 0.244328 -0.265877 0.241578 0.690702 1.00373 1.03296 -0.392399 1.13594 0.947037 1.23602 1.0505 -0.523676 -0.62117 1.23836 -0.625637 -0.594861 -0.369891 -0.609953 -0.550653 1.2386 1.213 1.15768 1.24024 1.21728 1.17766 -0.623467 1.24208 1.19944 1.26795 1.22829 1.23875 1.24306 1.23956 1.24341 1.2356 1.24845 1.24363 1.24383 1.24399 1.24414 1.24073 1.2436
internal_weight=0 7887.48 4860.09 3027.39 331.517 4528.58 228.417 82.4222 203.042 28.9649 19.1375 249.094 242.977 162.049 189.651 66.6736 4499.61 61.542 119.516 2798.97 122.977 6580.08 204.062 12.8291 191.233 42.7633 4438.07 267.115 86.6403 4170.95 310.882 109.28 2735.32 3860.07 86.3787 104.884 80.3039 201.602 3773.69 180.475 3742.16 63.5366 77.7763 3710.95 3653.79 3617.84 3581.9 430.276 379.409
internal_count=40000 4517 3202 1315 235 2967 127 50 105 96 45 185 164 78 135 46 2871 69 53 1188 89 35483 1110 69 1041 225 2802 185 70 2617 207 80 1153 2410 63 69 53 127 2347 115 2324 41 49 2303 2266 2243 2220 270 236
shrinkage=0.1


Tree=15
num_leaves=50
num_cat=0
split_feature=13 17 17 17 17 15 17 8 13 15 17 17 17 15 17 8 17 17 13 11 8 8 17 15 15 17 17 13 15 15 9 15 26 9 9 26 8 9 26 26 9 9 15 15 13 6 17 6 15
split_gain=4140.71 466.651 373.052 484.389 255.322 182.247 118.132 97.0509 83.9204 112.756 55.2555 44.128 42.6376 26.7676 25.5812 19.5085 19.079 28.3735 18.6519 17.2595 15.9448 15.3502 13.3216 12.7145 12.0442 10.343 9.6312 9.63116 9.15443 9.12228 13.3693 8.8829 8.52894 9.97969 9.77727 8.354 8.25228 8.02155 8.30936 8.01563 8.35008 8.24292 7.92714 7.5718 8.6203 7.5052 7.4445 7.25399 7.20095
threshold=2.5000000000000004 1.0000000180025095e-35 1.0000000180025095e-35 6.5000000000000009 -1.0000000180025095e-35 2.5000000000000004 -4.4999999999999991 120.50000000000001 3.5000000000000004 1.5000000000000002 3.5000000000000004 11.500000000000002 5.5000000000000009 3.5000000000000004 9.5000000000000018 120.50000000000001 -1.0000000180025095e-35 -5.4999999999999991 1.5000000000000002 18.500000000000004 93.500000000000014 114.50000000000001 -1.0000000180025095e-35 10.500000000000002 10.500000000000002 18.500000000000004 -6.4999999999999991 2.5000000000000004 11.500000000000002 3.5000000000000004 205.50000000000003 1.5000000000000002 -1.4999999999999998 643.50000000000011 687.50000000000011 3.5000000000000004 22.500000000000004 396.50000000000006 -1.0000000180025095e-35 1.0000000180025095e-35 596.50000000000011 506.50000000000006 18.500000000000004 3.5000000000000004 1.5000000000000002 17.500000000000004 4.5000000000000009 9.5000000000000018 1.5000000000000002
decision_type=8 2 2 2 2 2 2 2 10 2 2 2 2 2 2 2 2 2 10 2 2 2 2 2 2 2 2 10 2 2 2 2 2 2 2 2 2 2 2 2 2 2 2 2 10 2 2 2 2
left_child=2 8 4 10 6 14 26 36 9 27 -4 15 19 -9 31 35 17 -11 32 42 -13 -12 48 39 46 -22 -1 -2 37 -19 -31 -3 34 -34 -15 -5 -6 38 -14 41 -41 -17 -7 -43 -45 -35 -23 -38 -10
right_child=1 5 3 11 7 12 -8 13 22 16 21 20 28 18 -16 23 -18 29 -20 -21 25 24 -24 -25 -26 -27 -28 -29 -30 30 -32 -33 33 45 -36 -37 47 -39 -40 40 -42 43 -44 44 -46 -47 -48 -49 -50
leaf_value=-0.033716543486101473 -0.018192239685674464 0.10804854507793966 0.10940180335061245 -0.023284471887221995 -0.060902301085424715 0.0014223746549599269 0.102734578347077 0.064250321178085101 0.12609510291329587 -0.058091247196994669 0.035114314887794519 -0.040960459568663315 -0.035760368396602182 -0.02688908006596771 0.014343174782148247 0.0068324631192786872 -0.048462952043184244 0.10898080704963294 -0.0043307039841503341 0.07228603752791965 0.025474290863280326 0.09717506033438264 -0.061925024346747071 0.013289221159621379 0.04885724771260181 -0.00026264283751617972 0.022400045918327827 0.092715951376862921 -0.0022110563921243407 0.11951123635355979 -0.0095471096675840972 0.065092016411869333 0.073391982905436318 0.072064677318089077 0.017951606880855481 0.047563485318539538 0.030833666740627666 -0.042741920056968419 0.049369362800382843 0.10741759208339718 0.059502781612635253 0.099948753858786571 0.10499719711863008 0.057423448019016769 0.026970089908720487 0.020333084480451361 0.080306275387869885 -0.037116209203751763 -0.038367053248631565
leaf_weight=65.426206961274147 8.7057694643735868 176.77387017011642 1733.1996908336878 56.755447417497635 176.71513158082962 129.05710765719414 466.41858002543449 102.03664366900921 5.7337661087512952 50.563981339335442 66.863557904958725 53.950794607400894 25.938064381480217 61.100145906209946 45.099401772022247 48.605899780988693 510.50313290953636 15.69258441030979 477.52041319012642 58.397061839699745 406.25435929000378 446.36408425867558 6199.3995377719402 88.446372479200363 88.219864025712013 253.63280156254768 57.431140631437302 77.817239180207253 97.921089842915535 10.455906376242636 34.549162954092026 66.153935804963112 49.169149085879326 30.911768093705177 238.18909312784672 23.54893434047699 17.931654930114746 302.94382277131081 20.549759894609451 44.060699060559273 208.38849276304245 28.63855367898941 7.8381670862436286 265.39474356174469 143.05250042676926 302.36785519123077 632.09419682621956 126.85558000206947 4.969964399933815
leaf_count=395 49 584 5671 320 209 663 1569 417 20 321 303 332 153 340 206 227 2767 58 2557 243 1941 1533 4192 438 374 1346 279 273 563 36 196 280 204 134 1187 110 79 1800 100 166 863 105 33 1105 654 1470 2344 768 23
internal_value=0 -0.490701 0.57706 0.738711 0.235651 0.1741 0.797552 0.0264552 -0.580131 -0.254012 0.978885 0.299073 -0.122153 0.151473 0.835099 0.445467 -0.402851 -0.0276268 0.108253 0.267693 0.113087 0.817116 -0.617326 0.491182 0.843821 0.155821 -0.0748417 0.815566 -0.292341 0.433286 0.204367 0.963507 0.214412 0.313358 0.0879734 -0.025086 -0.464005 -0.368067 0.0187089 0.534113 0.678655 0.458985 0.0735272 0.502428 0.467576 0.251312 0.872881 -0.287007 0.497319
internal_weight=0 7849.06 6759.54 4587.47 2172.07 930.672 589.276 1582.8 6918.39 708.288 2966.74 1620.73 642.645 1261.3 288.027 906.892 621.765 111.262 1159.26 195.292 713.838 1233.54 6210.1 826.587 1166.68 659.887 122.857 86.523 447.353 60.6977 45.0051 242.928 681.738 382.449 299.289 80.3044 321.502 349.432 46.4878 738.141 252.449 485.692 136.895 437.086 408.447 333.28 1078.46 144.787 10.7037
internal_count=40000 12560 27440 17832 9608 4625 2243 7365 7935 3700 10225 7607 3555 6309 1070 3988 3378 611 5892 939 3619 4554 4235 3558 4251 3287 674 322 2616 290 232 864 3335 1808 1527 430 1056 2053 253 3120 1029 2091 696 1864 1759 1604 3877 847 43
shrinkage=0.1


Tree=16
num_leaves=50
num_cat=0
split_feature=6 13 8 8 17 6 23 13 6 6 11 16 2 17 17 9 26 6 13 26 7 6 15 6 20 25 11 7 6 25 9 26 15 9 0 24 23 4 6 0 15 26 0 7 6 13 7 9 20
split_gain=5295.9 2806.06 655.152 186.585 82.5837 45.7158 37.7549 29.4988 23.4504 19.4716 19.0259 17.8869 22.7143 13.9716 13.122 8.09875 7.24381 5.6954 9.27793 13.5206 12.518 5.46697 4.47872 3.4917 2.35455 8.42957 2.29977 1.94023 1.14674 0.940492 0.444066 0.979216 0.385304 0.351769 0.292714 0.116802 0.338955 0.113354 0.084489 0.134962 0.0331013 0.0611088 0.116261 0.0976391 0.0246319 0.0170494 0.0148914 0.00903094 0.00742456
threshold=37.500000000000007 3.5000000000000004 12.500000000000002 6.5000000000000009 1.0000000180025095e-35 39.500000000000007 15.500000000000002 3.5000000000000004 52.500000000000007 36.500000000000007 28.500000000000004 6.5000000000000009 23.500000000000004 -1.0000000180025095e-35 1.0000000180025095e-35 1549.5000000000002 34.500000000000007 42.500000000000007 3.5000000000000004 10.500000000000002 112.50000000000001 34.500000000000007 5.5000000000000009 44.500000000000007 1.0000000180025095e-35 4.0000000000000009 10.500000000000002 8.5000000000000018 1.5000000000000002 30.500000000000004 178.50000000000003 -3.4999999999999996 1.5000000000000002 1795.5000000000002 15.500000000000002 22.500000000000004 22.500000000000004 18.500000000000004 3.5000000000000004 20.500000000000004 6.5000000000000009 -4.4999999999999991 14.500000000000002 383.50000000000006 31.500000000000004 3.5000000000000004 375.50000000000006 101.50000000000001 2.5000000000000004
decision_type=2 10 2 2 2 2 2 10 2 2 2 2 2 2 2 2 2 2 10 2 2 2 2 2 2 2 2 2 2 2 2 2 2 2 2 2 2 2 2 2 2 2 2 2 2 10 2 2 2
left_child=1 2 14 8 9 6 11 15 23 13 24 12 -5 -3 27 -8 17 18 47 20 -20 28 -23 -2 25 -4 -24 33 -15 30 31 -30 34 -1 -32 38 -37 -35 39 -34 41 42 43 -40 48 -19 -44 -7 -43
right_child=3 4 10 5 -6 16 7 -9 -10 -11 -12 -13 -14 21 -16 -17 -18 45 19 -21 -22 22 26 -25 -26 -27 -28 -29 29 -31 32 -33 35 37 -36 36 -38 -39 40 -41 -42 44 46 -45 -46 -47 -48 -49 -50
leaf_value=0.10211983706570049 0.10988043781073971 -0.062088796818443738 0.059473991775019164 -0.064775613822175671 -0.062135673954725607 -0.065436874088669245 -0.062027342503721231 0.082321595334146166 -0.06280480698102113 0.056720963382906456 0.049276664786116975 -0.061787757051302294 0.10290728014338585 0.09178518599743056 -0.062402848342407426 0.054605906664097294 0.02005000729778833 -0.061604243138744713 0.024602430682409377 0.034184183324788897 -0.062124241621011968 0.068837928310767446 0.11346476479347363 0.042324464939763905 -0.061594092178020969 -0.062218843074744096 0.090715384170732064 0.079969619683467386 0.090327904141514689 0.097936253748880597 0.11001582800773953 0.10950131994372131 0.10638456221682493 0.1135368257549112 0.10114389269475768 0.10464336513745001 0.11210072579329496 0.10864621822709444 0.11001840597127202 0.11185272164910838 0.11187910105414718 0.1113089357136367 0.11044090058836782 0.10446254546666255 0.10988342184302394 -0.061284421757424268 0.11216344729610023 -0.061944833481957222 0.111846295894747
leaf_weight=45.236240357160568 72.319249376654625 4.7345840185880652 7.3890691548585883 15.771476626396177 28.442935958504677 7.7289193719625464 26.993672862648964 53.111854866147041 9.5702758580446226 70.715038403868675 15.780497774481772 133.43961881101131 16.561112359166145 32.178796321153641 4.6163228303194037 7.6381197422742835 11.07910396158695 4055.5117587521672 20.98074035346508 28.105348333716393 80.497882053256035 51.686377227306366 90.388637661933899 8.5560082942247373 1599.7383058220148 24.785741314291954 87.409400343894958 23.302004739642143 32.460659012198448 56.654805153608322 86.0063197016716 148.4620606303215 82.696247175335884 136.92573903501034 65.517643079161644 98.275660291314125 160.47472763061523 72.478763148188591 76.393610715866089 99.378113389015198 1775.8094531595707 369.47861984372139 80.920675590634346 53.984397873282433 81.150311067700386 2829.9791666120291 132.14217901229858 177.16608533263206 845.5339495241642
leaf_count=22 23 26 20 43 158 44 159 21 46 35 35 571 21 20 29 20 22 23944 20 20 95 26 20 20 9298 156 28 25 26 27 22 39 27 32 28 25 34 23 20 22 379 83 20 20 21 2951 28 1025 181
internal_value=0 0.653566 -0.35873 -0.575502 1.07734 -0.5928 -0.175425 0.355011 0.852175 1.08789 -0.599987 -0.456185 0.211134 1.09605 1.04812 -0.363036 -0.607474 -0.608717 -0.477113 -0.271942 -0.441935 1.09785 0.947484 1.02734 -0.610554 -0.342716 1.02281 1.07589 1.10592 1.10734 1.10907 1.06061 1.11126 1.10117 1.0618 1.1132 1.09268 1.11844 1.11468 1.09369 1.1158 1.11256 1.1007 1.07718 1.1157 -0.614728 1.11509 -0.620908 1.11683
internal_weight=0 6541.15 1930.25 7555.01 4610.9 7464.56 253.516 87.7436 90.4455 4582.45 1647.69 165.772 32.3326 4511.74 282.559 34.6318 7211.05 7199.97 314.479 129.584 101.479 4507 229.484 80.8753 1631.91 32.1748 177.798 277.943 4277.52 4245.34 4188.68 180.923 4007.76 254.641 151.524 3856.24 258.75 209.405 3597.49 182.074 3415.41 1639.6 343.441 130.378 1296.16 6885.49 213.063 184.895 1215.01
internal_count=40000 10955 9640 29045 1315 28956 835 200 89 1157 9509 635 64 1122 131 179 28121 28099 1204 135 115 1096 74 43 9474 176 48 102 1022 1002 975 65 910 77 50 860 59 55 801 49 752 373 88 40 285 26895 48 1069 264
shrinkage=0.1


Tree=17
num_leaves=50
num_cat=0
split_feature=13 13 17 17 15 7 17 17 17 8 17 15 15 17 21 6 8 13 17 26 9 8 8 8 24 6 8 17 15 13 17 8 15 16 15 13 8 15 25 17 6 26 6 9 24 26 15 17 17
split_gain=3535.34 288.113 208.494 442.875 152.469 151.418 140.471 133.526 117.056 85.8791 54.744 22.5526 22.0828 20.9739 20.4405 20.2423 16.9858 16.471 16.0642 15.9138 18.6974 15.6822 15.2278 13.473 13.0114 12.069 11.6088 10.971 10.8744 12.403 10.5913 8.92004 8.74595 18.0721 8.67058 12.7825 8.35147 7.90947 7.89951 7.77052 7.64607 7.50927 7.44445 6.60534 6.50616 6.3593 6.00694 5.92219 8.32418
threshold=3.5000000000000004 2.5000000000000004 7.5000000000000009 1.0000000180025095e-35 2.5000000000000004 8.5000000000000018 -1.0000000180025095e-35 4.5000000000000009 -4.4999999999999991 12.500000000000002 3.5000000000000004 1.5000000000000002 2.5000000000000004 2.5000000000000004 1.0000000180025095e-35 51.500000000000007 146.50000000000003 2.5000000000000004 17.500000000000004 -1.0000000180025095e-35 643.50000000000011 353.50000000000006 36.500000000000007 93.500000000000014 20.500000000000004 40.500000000000007 140.50000000000003 -3.4999999999999996 4.5000000000000009 1.5000000000000002 -2.4999999999999996 120.50000000000001 10.500000000000002 -1.0000000180025095e-35 4.5000000000000009 1.5000000000000002 127.50000000000001 10.500000000000002 17.500000000000004 10.500000000000002 91.500000000000014 2.5000000000000004 78.500000000000014 143.50000000000003 19.500000000000004 8.5000000000000018 10.500000000000002 9.5000000000000018 1.0000000180025095e-35
decision_type=10 8 2 2 2 2 2 2 2 2 2 2 2 2 2 2 2 10 2 2 2 2 2 2 2 2 2 2 2 10 2 2 2 2 2 10 2 2 2 2 2 2 2 2 2 2 2 2 2
left_child=1 2 3 5 11 15 8 13 -7 25 27 17 -8 31 -11 -1 41 -3 28 21 -21 -9 -13 -15 40 -6 -14 -2 -18 45 -10 -5 33 -28 -23 -36 -22 44 -12 -19 -16 -4 43 -43 -25 -30 -32 48 -24
right_child=10 4 16 7 9 6 12 19 30 14 38 22 26 23 24 -17 18 39 -20 20 36 34 47 37 -26 -27 32 -29 29 -31 46 -33 -34 -35 35 -37 -38 -39 -40 -41 -42 42 -44 -45 -46 -47 -48 -49 -50
leaf_value=-0.051603153455776901 0.071119397879634921 0.080912723328532762 0.10200369918353064 0.0030816855243478406 -0.048760347531320448 0.084237716761104295 0.020957936960664395 0.069694846411422998 0.0060553439595168066 0.0096457482566915977 0.015615105668764671 -0.0332731704097445 0.09563849136937419 0.048348649819556139 0.099715164874447815 0.087405971492725276 0.014072098509264047 -0.022934113291379888 0.078622314459898784 -0.033346316152039472 0.076718682276029182 -0.025868250399699273 0.07475295937134728 -0.014323410888035291 0.069406937962279688 0.11737195739695674 0.01485722634346442 -0.059547198448335628 0.0504551781113491 0.069824528655145976 -0.036191368421986204 -0.03866261604559821 0.093452618545456903 0.071747912902732108 0.0148293242405628 0.059362234938257465 0.016224284593139789 0.0197939187187126 0.098832776495877683 0.046103908778274555 0.051377335473444509 -0.01612714915113336 -0.026159324560902593 0.089616975487188583 -0.039682459081699005 0.017184381098930935 0.02739633792314472 0.1060280923243502 0.022487994733105251
leaf_weight=146.95886340737343 6.4326471239328376 19.601602822542191 153.61530934274197 54.92670650780201 49.727688521146774 157.15601091086864 77.971963211894035 112.5023009032011 107.09186713397503 28.489634066820145 29.689746677875519 21.930784121155739 242.31384873390198 34.230011433362961 1300.3819461464882 11.279494807124136 65.373183131217957 156.74898229539394 342.08152981102467 78.888688340783119 24.215958192944527 29.14204765856266 59.288673609495163 596.99830780923367 173.76547130942345 4.7944160252809516 58.583881765604019 5886.7981547191739 469.93751634657383 390.50777345895767 219.25967559218407 752.12719242274761 166.91024075448513 1191.1504611074924 172.25336240231991 102.99265962839127 396.12845654785633 57.916593685746193 18.523924067616463 18.195737212896347 33.568548277020454 6.8750303238630286 8.6017672419548017 41.962891191244125 121.81538471579552 65.450210064649582 15.935938224196432 20.459389090538025 62.70017883181572
leaf_count=85 25 83 661 243 31 662 317 499 475 103 100 25 1010 152 5549 49 266 712 1432 299 104 119 251 2730 713 21 239 4318 1974 1662 1006 3500 706 4980 738 462 1696 260 74 77 136 25 30 179 536 265 79 91 251
internal_value=0 0.421991 0.32049 0.220028 0.758993 0.528396 0.595285 -0.0713625 0.127907 0.891829 -0.585363 0.170274 0.729677 -0.244087 0.935603 -0.416944 0.641099 -0.0601392 0.599375 0.233695 0.113255 0.377923 0.442974 -0.130507 0.951459 -0.341515 0.754122 -0.594046 0.534895 0.562726 -0.200131 -0.358216 0.719525 0.69081 0.260011 0.314928 0.197094 -0.157566 0.475877 -0.157536 0.984988 0.904694 0.596225 0.747311 -0.186209 0.463879 -0.318829 0.562399 0.478897
internal_weight=0 8422.81 6473.16 4928.75 1949.65 2394.61 2236.37 2534.14 499.443 1590.73 5941.44 358.925 1736.93 1618.01 1536.21 158.238 1544.41 194.546 1333.35 916.123 499.233 416.89 164.379 810.96 1507.72 54.5221 1658.96 5893.23 991.269 925.895 342.287 807.054 1416.64 1249.73 304.388 275.246 420.344 776.73 48.2137 174.945 1333.95 211.055 57.4397 48.8379 718.814 535.388 235.196 142.448 121.989
internal_count=40000 35483 27440 20946 8043 9608 9474 11338 2222 6553 4517 1490 7252 7421 6501 134 6494 872 5599 3917 2099 1818 618 3678 6398 52 6935 4343 4167 3901 1560 3743 5925 5219 1319 1200 1800 3526 174 789 5685 895 234 204 3266 2239 1085 593 502
shrinkage=0.1


Tree=18
num_leaves=50
num_cat=0
split_feature=13 6 6 17 23 6 15 22 9 8 6 9 6 22 16 9 15 9 26 24 6 1 7 8 7 15 6 25 2 4 9 6 26 7 7 9 26 26 6 1 6 23 9 15 8 0 16 8 16
split_gain=4150.58 4975.38 71.9299 28.0763 25.4649 16.292 16.122 11.7282 20.2339 10.1679 9.74721 4.3266 4.23816 6.29179 4.52878 4.15807 2.59225 1.30208 3.5886 0.784408 0.65948 0.207026 0.718225 5.99411 0.177966 0.175743 0.288582 0.663113 0.204259 0.483898 0.15681 0.349809 1.28491 0.055009 0.0442139 0.0384286 0.0222598 0.0268551 0.0192105 0.0422783 0.0130688 0.00875883 0.0192022 0.0380554 0.0100508 0.0326248 0.011143 0.00882952 0.00753982
threshold=3.5000000000000004 36.500000000000007 39.500000000000007 1.0000000180025095e-35 16.500000000000004 34.500000000000007 4.5000000000000009 9.5000000000000018 1028.5000000000002 12.500000000000002 60.500000000000007 1862.5000000000002 42.500000000000007 20.500000000000004 15.500000000000002 2586.5000000000005 2.5000000000000004 101.50000000000001 -1.0000000180025095e-35 9.5000000000000018 33.500000000000007 1.5000000000000002 161.50000000000003 1019.5000000000001 877.50000000000011 1.5000000000000002 56.500000000000007 8.5000000000000018 1.5000000000000002 19.500000000000004 235.50000000000003 62.500000000000007 -2.4999999999999996 518.50000000000011 151.50000000000003 2435.5000000000005 -2.4999999999999996 -8.4999999999999982 43.500000000000007 15.500000000000002 70.500000000000014 10.500000000000002 442.50000000000006 8.5000000000000018 93.500000000000014 19.500000000000004 -12.499999999999998 1750.5000000000002 26.500000000000004
decision_type=10 2 2 2 2 2 2 2 2 2 2 2 2 2 2 2 2 2 2 2 2 2 2 2 2 2 2 2 2 2 2 2 2 2 2 2 2 2 2 2 2 2 2 2 2 2 2 2 2
left_child=21 5 4 9 7 20 -7 15 -9 -4 16 -8 13 14 -11 -3 -5 18 -14 35 24 22 23 -1 -2 26 27 33 29 -27 31 32 -30 -19 -28 -16 37 -36 39 -32 -33 42 43 -40 45 -44 -46 48 -48
right_child=1 2 3 10 -6 6 11 8 -10 12 -12 -13 17 -15 19 -17 -18 25 -20 -21 -22 -23 -24 -25 -26 28 34 -29 30 -31 38 40 -34 -35 36 -37 -38 -39 41 -41 -42 -43 44 -45 46 -47 47 -49 -50
